<?xml version="1.0"?>
<opencv_storage>
<cascade>
  <stageType>BOOST</stageType>
  <featureType>HAAR</featureType>
  <height>20</height>
  <width>20</width>
  <stageParams>
    <boostType>DAB</boostType>
    <minHitRate>9.9500000476837158e-01</minHitRate>
    <maxFalseAlarm>5.0000000000000000e-01</maxFalseAlarm>
    <weightTrimRate>9.4999999999999996e-01</weightTrimRate>
    <maxDepth>1</maxDepth>
    <maxWeakCount>100</maxWeakCount></stageParams>
  <featureParams>
    <maxCatCount>0</maxCatCount>
    <featSize>1</featSize>
    <mode>ALL</mode></featureParams>
  <stageNum>25</stageNum>
  <stages>
    <!-- stage 0 -->
    <_>
      <maxWeakCount>11</maxWeakCount>
      <stageThreshold>-3.3833618164062500e+00</stageThreshold>
      <weakClassifiers>
        <_>
          <internalNodes>
            0 -1 446 1.6688667237758636e-01</internalNodes>
          <leafValues>
            -1.1394343376159668e+00 1.1394343376159668e+00</leafValues></_>
        <_>
          <internalNodes>
            0 -1 1342 1.7530849436298013e-03</internalNodes>
          <leafValues>
            -1.0168890953063965e+00 1.0168890953063965e+00</leafValues></_>
        <_>
          <internalNodes>
            0 -1 1092 4.0026111528277397e-03</internalNodes>
          <leafValues>
            7.5597113370895386e-01 -7.5597113370895386e-01</leafValues></_>
        <_>
          <internalNodes>
            0 -1 934 1.0470753535628319e-02</internalNodes>
          <leafValues>
            -9.1615599393844604e-01 9.1615599393844604e-01</leafValues></_>
        <_>
          <internalNodes>
            0 -1 1326 -2.5807487964630127e-01</internalNodes>
          <leafValues>
            -5.7763105630874634e-01 5.7763105630874634e-01</leafValues></_>
        <_>
          <internalNodes>
            0 -1 261 2.1936297416687012e-03</internalNodes>
          <leafValues>
            -7.0559144020080566e-01 7.0559144020080566e-01</leafValues></_>
        <_>
          <internalNodes>
            0 -1 1737 1.2324110604822636e-02</internalNodes>
          <leafValues>
            5.0769442319869995e-01 -5.0769442319869995e-01</leafValues></_>
        <_>
          <internalNodes>
            0 -1 1517 3.9536338299512863e-03</internalNodes>
          <leafValues>
            -7.2036874294281006e-01 7.2036874294281006e-01</leafValues></_>
        <_>
          <internalNodes>
            0 -1 1189 1.0275024687871337e-03</internalNodes>
          <leafValues>
            5.3996413946151733e-01 -5.3996413946151733e-01</leafValues></_>
        <_>
          <internalNodes>
            0 -1 1719 4.3746754527091980e-03</internalNodes>
          <leafValues>
            -6.3526707887649536e-01 6.3526707887649536e-01</leafValues></_>
        <_>
          <internalNodes>
            0 -1 1733 -1.4587074983865023e-03</internalNodes>
          <leafValues>
            5.2021712064743042e-01 -5.2021712064743042e-01</leafValues></_></weakClassifiers></_>
    <!-- stage 1 -->
    <_>
      <maxWeakCount>18</maxWeakCount>
      <stageThreshold>-3.0677571296691895e+00</stageThreshold>
      <weakClassifiers>
        <_>
          <internalNodes>
            0 -1 253 7.5829023122787476e-01</internalNodes>
          <leafValues>
            -9.7366821765899658e-01 9.7366821765899658e-01</leafValues></_>
        <_>
          <internalNodes>
            0 -1 803 3.0287564732134342e-03</internalNodes>
          <leafValues>
            -8.6965084075927734e-01 8.6965084075927734e-01</leafValues></_>
        <_>
          <internalNodes>
            0 -1 499 -2.3066948051564395e-04</internalNodes>
          <leafValues>
            -7.0267081260681152e-01 7.0267081260681152e-01</leafValues></_>
        <_>
          <internalNodes>
            0 -1 452 -4.1238535195589066e-03</internalNodes>
          <leafValues>
            5.9021276235580444e-01 -5.9021276235580444e-01</leafValues></_>
        <_>
          <internalNodes>
            0 -1 417 -1.4325097203254700e-01</internalNodes>
          <leafValues>
            -6.4283859729766846e-01 6.4283859729766846e-01</leafValues></_>
        <_>
          <internalNodes>
            0 -1 803 -1.7242275644093752e-03</internalNodes>
          <leafValues>
            6.4661651849746704e-01 -6.4661651849746704e-01</leafValues></_>
        <_>
          <internalNodes>
            0 -1 569 2.7552573010325432e-02</internalNodes>
          <leafValues>
            5.1498001813888550e-01 -5.1498001813888550e-01</leafValues></_>
        <_>
          <internalNodes>
            0 -1 1685 -3.9967494085431099e-03</internalNodes>
          <leafValues>
            6.5386652946472168e-01 -6.5386652946472168e-01</leafValues></_>
        <_>
          <internalNodes>
            0 -1 1089 5.9345993213355541e-04</internalNodes>
          <leafValues>
            4.7879034280776978e-01 -4.7879034280776978e-01</leafValues></_>
        <_>
          <internalNodes>
            0 -1 1717 2.6727444492280483e-03</internalNodes>
          <leafValues>
            -5.7976019382476807e-01 5.7976019382476807e-01</leafValues></_>
        <_>
          <internalNodes>
            0 -1 1381 1.2023564428091049e-02</internalNodes>
          <leafValues>
            4.6792021393775940e-01 -4.6792021393775940e-01</leafValues></_>
        <_>
          <internalNodes>
            0 -1 1257 -1.1112627107650042e-03</internalNodes>
          <leafValues>
            6.0912024974822998e-01 -6.0912024974822998e-01</leafValues></_>
        <_>
          <internalNodes>
            0 -1 430 -3.7834815680980682e-02</internalNodes>
          <leafValues>
            -4.5604324340820312e-01 4.5604324340820312e-01</leafValues></_>
        <_>
          <internalNodes>
            0 -1 1347 2.2049332037568092e-03</internalNodes>
          <leafValues>
            -5.6654942035675049e-01 5.6654942035675049e-01</leafValues></_>
        <_>
          <internalNodes>
            0 -1 983 -5.8264816179871559e-03</internalNodes>
          <leafValues>
            -4.3848064541816711e-01 4.3848064541816711e-01</leafValues></_>
        <_>
          <internalNodes>
            0 -1 1726 -3.3456874080002308e-03</internalNodes>
          <leafValues>
            5.4752200841903687e-01 -5.4752200841903687e-01</leafValues></_>
        <_>
          <internalNodes>
            0 -1 32 -6.3968822360038757e-02</internalNodes>
          <leafValues>
            -4.9390575289726257e-01 4.9390575289726257e-01</leafValues></_>
        <_>
          <internalNodes>
            0 -1 938 -2.8758100233972073e-03</internalNodes>
          <leafValues>
            5.5123925209045410e-01 -5.5123925209045410e-01</leafValues></_></weakClassifiers></_>
    <!-- stage 2 -->
    <_>
      <maxWeakCount>36</maxWeakCount>
      <stageThreshold>-2.9686872959136963e+00</stageThreshold>
      <weakClassifiers>
        <_>
          <internalNodes>
            0 -1 878 -2.3210372775793076e-02</internalNodes>
          <leafValues>
            9.4454628229141235e-01 -9.4454628229141235e-01</leafValues></_>
        <_>
          <internalNodes>
            0 -1 554 -4.7577343881130219e-02</internalNodes>
          <leafValues>
            6.4193266630172729e-01 -6.4193266630172729e-01</leafValues></_>
        <_>
          <internalNodes>
            0 -1 1288 -1.3179346569813788e-04</internalNodes>
          <leafValues>
            5.6981271505355835e-01 -5.6981271505355835e-01</leafValues></_>
        <_>
          <internalNodes>
            0 -1 541 5.2257280796766281e-02</internalNodes>
          <leafValues>
            -6.4996522665023804e-01 6.4996522665023804e-01</leafValues></_>
        <_>
          <internalNodes>
            0 -1 530 1.7270401120185852e-02</internalNodes>
          <leafValues>
            4.3652176856994629e-01 -4.3652176856994629e-01</leafValues></_>
        <_>
          <internalNodes>
            0 -1 1448 -1.3901756610721350e-03</internalNodes>
          <leafValues>
            5.1594471931457520e-01 -5.1594471931457520e-01</leafValues></_>
        <_>
          <internalNodes>
            0 -1 1117 6.5813167020678520e-03</internalNodes>
          <leafValues>
            3.3999037742614746e-01 -3.3999037742614746e-01</leafValues></_>
        <_>
          <internalNodes>
            0 -1 1715 8.0935107544064522e-03</internalNodes>
          <leafValues>
            -5.2243864536285400e-01 5.2243864536285400e-01</leafValues></_>
        <_>
          <internalNodes>
            0 -1 766 -3.2243691384792328e-03</internalNodes>
          <leafValues>
            4.0358841419219971e-01 -4.0358841419219971e-01</leafValues></_>
        <_>
          <internalNodes>
            0 -1 129 4.6728156507015228e-02</internalNodes>
          <leafValues>
            -4.0976205468177795e-01 4.0976205468177795e-01</leafValues></_>
        <_>
          <internalNodes>
            0 -1 297 1.1131654679775238e-01</internalNodes>
          <leafValues>
            3.9561340212821960e-01 -3.9561340212821960e-01</leafValues></_>
        <_>
          <internalNodes>
            0 -1 724 -3.7769209593534470e-03</internalNodes>
          <leafValues>
            4.2286726832389832e-01 -4.2286726832389832e-01</leafValues></_>
        <_>
          <internalNodes>
            0 -1 848 2.2866809740662575e-02</internalNodes>
          <leafValues>
            3.5579138994216919e-01 -3.5579138994216919e-01</leafValues></_>
        <_>
          <internalNodes>
            0 -1 796 -2.2638747468590736e-03</internalNodes>
          <leafValues>
            3.7625426054000854e-01 -3.7625426054000854e-01</leafValues></_>
        <_>
          <internalNodes>
            0 -1 1371 1.6310401260852814e-03</internalNodes>
          <leafValues>
            3.7454095482826233e-01 -3.7454095482826233e-01</leafValues></_>
        <_>
          <internalNodes>
            0 -1 146 3.8869932759553194e-03</internalNodes>
          <leafValues>
            -4.0670680999755859e-01 4.0670680999755859e-01</leafValues></_>
        <_>
          <internalNodes>
            0 -1 1214 -9.5697160577401519e-04</internalNodes>
          <leafValues>
            -3.6494305729866028e-01 3.6494305729866028e-01</leafValues></_>
        <_>
          <internalNodes>
            0 -1 734 -1.4127669855952263e-03</internalNodes>
          <leafValues>
            3.8783350586891174e-01 -3.8783350586891174e-01</leafValues></_>
        <_>
          <internalNodes>
            0 -1 1282 -5.2945641800761223e-04</internalNodes>
          <leafValues>
            -2.8289547562599182e-01 2.8289547562599182e-01</leafValues></_>
        <_>
          <internalNodes>
            0 -1 558 -1.2369005708023906e-03</internalNodes>
          <leafValues>
            3.7244671583175659e-01 -3.7244671583175659e-01</leafValues></_>
        <_>
          <internalNodes>
            0 -1 10 -3.0114483088254929e-03</internalNodes>
          <leafValues>
            -3.0912080407142639e-01 3.0912080407142639e-01</leafValues></_>
        <_>
          <internalNodes>
            0 -1 1511 2.5765576865524054e-03</internalNodes>
          <leafValues>
            -3.5330560803413391e-01 3.5330560803413391e-01</leafValues></_>
        <_>
          <internalNodes>
            0 -1 1550 -7.5143069261685014e-04</internalNodes>
          <leafValues>
            -3.3394593000411987e-01 3.3394593000411987e-01</leafValues></_>
        <_>
          <internalNodes>
            0 -1 1663 -1.2348946183919907e-03</internalNodes>
          <leafValues>
            3.9681655168533325e-01 -3.9681655168533325e-01</leafValues></_>
        <_>
          <internalNodes>
            0 -1 1724 3.2709650695323944e-03</internalNodes>
          <leafValues>
            -3.2593324780464172e-01 3.2593324780464172e-01</leafValues></_>
        <_>
          <internalNodes>
            0 -1 1498 -8.0423772335052490e-02</internalNodes>
          <leafValues>
            -3.6528593301773071e-01 3.6528593301773071e-01</leafValues></_>
        <_>
          <internalNodes>
            0 -1 74 -3.9305379614233971e-03</internalNodes>
          <leafValues>
            3.7578368186950684e-01 -3.7578368186950684e-01</leafValues></_>
        <_>
          <internalNodes>
            0 -1 1563 -7.0826499722898006e-03</internalNodes>
          <leafValues>
            3.2512983679771423e-01 -3.2512983679771423e-01</leafValues></_>
        <_>
          <internalNodes>
            0 -1 1713 5.3335190750658512e-03</internalNodes>
          <leafValues>
            2.7765053510665894e-01 -2.7765053510665894e-01</leafValues></_>
        <_>
          <internalNodes>
            0 -1 791 -2.0010974258184433e-02</internalNodes>
          <leafValues>
            3.3091029524803162e-01 -3.3091029524803162e-01</leafValues></_>
        <_>
          <internalNodes>
            0 -1 1021 3.0271634459495544e-02</internalNodes>
          <leafValues>
            -4.1393780708312988e-01 4.1393780708312988e-01</leafValues></_>
        <_>
          <internalNodes>
            0 -1 956 1.1663348414003849e-03</internalNodes>
          <leafValues>
            2.8399249911308289e-01 -2.8399249911308289e-01</leafValues></_>
        <_>
          <internalNodes>
            0 -1 1351 -2.6905154809355736e-03</internalNodes>
          <leafValues>
            3.7419185042381287e-01 -3.7419185042381287e-01</leafValues></_>
        <_>
          <internalNodes>
            0 -1 1113 8.4532937034964561e-04</internalNodes>
          <leafValues>
            3.4087374806404114e-01 -3.4087374806404114e-01</leafValues></_>
        <_>
          <internalNodes>
            0 -1 106 3.0107334256172180e-02</internalNodes>
          <leafValues>
            -3.5135030746459961e-01 3.5135030746459961e-01</leafValues></_>
        <_>
          <internalNodes>
            0 -1 99 1.2626353651285172e-02</internalNodes>
          <leafValues>
            3.1467664241790771e-01 -3.1467664241790771e-01</leafValues></_></weakClassifiers></_>
    <!-- stage 3 -->
    <_>
      <maxWeakCount>52</maxWeakCount>
      <stageThreshold>-3.0561108589172363e+00</stageThreshold>
      <weakClassifiers>
        <_>
          <internalNodes>
            0 -1 591 -9.5089651644229889e-02</internalNodes>
          <leafValues>
            8.3627939224243164e-01 -8.3627939224243164e-01</leafValues></_>
        <_>
          <internalNodes>
            0 -1 821 -2.8314488008618355e-03</internalNodes>
          <leafValues>
            6.3274598121643066e-01 -6.3274598121643066e-01</leafValues></_>
        <_>
          <internalNodes>
            0 -1 670 5.4680861532688141e-02</internalNodes>
          <leafValues>
            -5.2554291486740112e-01 5.2554291486740112e-01</leafValues></_>
        <_>
          <internalNodes>
            0 -1 1614 -3.0173745471984148e-03</internalNodes>
          <leafValues>
            -5.3882247209548950e-01 5.3882247209548950e-01</leafValues></_>
        <_>
          <internalNodes>
            0 -1 1280 -7.2916120290756226e-02</internalNodes>
          <leafValues>
            4.3667328357696533e-01 -4.3667328357696533e-01</leafValues></_>
        <_>
          <internalNodes>
            0 -1 176 4.0320299565792084e-02</internalNodes>
          <leafValues>
            3.5794252157211304e-01 -3.5794252157211304e-01</leafValues></_>
        <_>
          <internalNodes>
            0 -1 138 2.5143366307020187e-02</internalNodes>
          <leafValues>
            -4.5964640378952026e-01 4.5964640378952026e-01</leafValues></_>
        <_>
          <internalNodes>
            0 -1 1660 -2.5632907636463642e-03</internalNodes>
          <leafValues>
            3.9046737551689148e-01 -3.9046737551689148e-01</leafValues></_>
        <_>
          <internalNodes>
            0 -1 1394 1.1226314818486571e-03</internalNodes>
          <leafValues>
            3.9299824833869934e-01 -3.9299824833869934e-01</leafValues></_>
        <_>
          <internalNodes>
            0 -1 639 -2.0149182528257370e-02</internalNodes>
          <leafValues>
            3.9726358652114868e-01 -3.9726358652114868e-01</leafValues></_>
        <_>
          <internalNodes>
            0 -1 534 2.7524554170668125e-03</internalNodes>
          <leafValues>
            -4.0644636750221252e-01 4.0644636750221252e-01</leafValues></_>
        <_>
          <internalNodes>
            0 -1 893 -9.3410000205039978e-02</internalNodes>
          <leafValues>
            -4.2038506269454956e-01 4.2038506269454956e-01</leafValues></_>
        <_>
          <internalNodes>
            0 -1 1073 -2.9807321261614561e-03</internalNodes>
          <leafValues>
            3.4948498010635376e-01 -3.4948498010635376e-01</leafValues></_>
        <_>
          <internalNodes>
            0 -1 536 -6.1843576841056347e-03</internalNodes>
          <leafValues>
            3.4074991941452026e-01 -3.4074991941452026e-01</leafValues></_>
        <_>
          <internalNodes>
            0 -1 896 4.4666215777397156e-02</internalNodes>
          <leafValues>
            -3.6215093731880188e-01 3.6215093731880188e-01</leafValues></_>
        <_>
          <internalNodes>
            0 -1 668 2.1565232891589403e-03</internalNodes>
          <leafValues>
            3.0993440747261047e-01 -3.0993440747261047e-01</leafValues></_>
        <_>
          <internalNodes>
            0 -1 191 2.0003065466880798e-02</internalNodes>
          <leafValues>
            3.3538243174552917e-01 -3.3538243174552917e-01</leafValues></_>
        <_>
          <internalNodes>
            0 -1 1723 3.9290599524974823e-03</internalNodes>
          <leafValues>
            -3.5875278711318970e-01 3.5875278711318970e-01</leafValues></_>
        <_>
          <internalNodes>
            0 -1 1487 -7.5437384657561779e-04</internalNodes>
          <leafValues>
            -3.3501857519149780e-01 3.3501857519149780e-01</leafValues></_>
        <_>
          <internalNodes>
            0 -1 543 2.0043491385877132e-03</internalNodes>
          <leafValues>
            -3.4885281324386597e-01 3.4885281324386597e-01</leafValues></_>
        <_>
          <internalNodes>
            0 -1 165 -4.2944760061800480e-03</internalNodes>
          <leafValues>
            2.7274692058563232e-01 -2.7274692058563232e-01</leafValues></_>
        <_>
          <internalNodes>
            0 -1 112 3.2708861399441957e-03</internalNodes>
          <leafValues>
            -3.1187984347343445e-01 3.1187984347343445e-01</leafValues></_>
        <_>
          <internalNodes>
            0 -1 436 6.0985423624515533e-02</internalNodes>
          <leafValues>
            3.2243871688842773e-01 -3.2243871688842773e-01</leafValues></_>
        <_>
          <internalNodes>
            0 -1 1787 -1.5769046731293201e-03</internalNodes>
          <leafValues>
            3.6208704113960266e-01 -3.6208704113960266e-01</leafValues></_>
        <_>
          <internalNodes>
            0 -1 1290 -5.3945521358400583e-04</internalNodes>
          <leafValues>
            -2.9431739449501038e-01 2.9431739449501038e-01</leafValues></_>
        <_>
          <internalNodes>
            0 -1 1359 -3.0228351242840290e-03</internalNodes>
          <leafValues>
            3.2258895039558411e-01 -3.2258895039558411e-01</leafValues></_>
        <_>
          <internalNodes>
            0 -1 1473 -8.9142133947461843e-04</internalNodes>
          <leafValues>
            -2.9945611953735352e-01 2.9945611953735352e-01</leafValues></_>
        <_>
          <internalNodes>
            0 -1 1759 -8.7146293371915817e-03</internalNodes>
          <leafValues>
            3.5334467887878418e-01 -3.5334467887878418e-01</leafValues></_>
        <_>
          <internalNodes>
            0 -1 1337 -5.1892577903345227e-04</internalNodes>
          <leafValues>
            3.1833314895629883e-01 -3.1833314895629883e-01</leafValues></_>
        <_>
          <internalNodes>
            0 -1 758 -1.8422741442918777e-02</internalNodes>
          <leafValues>
            -2.9230722784996033e-01 2.9230722784996033e-01</leafValues></_>
        <_>
          <internalNodes>
            0 -1 26 6.1806468293070793e-03</internalNodes>
          <leafValues>
            -3.6027118563652039e-01 3.6027118563652039e-01</leafValues></_>
        <_>
          <internalNodes>
            0 -1 1605 -3.4263452980667353e-03</internalNodes>
          <leafValues>
            3.1248673796653748e-01 -3.1248673796653748e-01</leafValues></_>
        <_>
          <internalNodes>
            0 -1 588 4.9961954355239868e-03</internalNodes>
          <leafValues>
            3.1036031246185303e-01 -3.1036031246185303e-01</leafValues></_>
        <_>
          <internalNodes>
            0 -1 1191 -8.2429562462493777e-04</internalNodes>
          <leafValues>
            2.5111562013626099e-01 -2.5111562013626099e-01</leafValues></_>
        <_>
          <internalNodes>
            0 -1 1104 3.7780958227813244e-03</internalNodes>
          <leafValues>
            2.8274875879287720e-01 -2.8274875879287720e-01</leafValues></_>
        <_>
          <internalNodes>
            0 -1 1007 -2.4569500237703323e-03</internalNodes>
          <leafValues>
            3.6345076560974121e-01 -3.6345076560974121e-01</leafValues></_>
        <_>
          <internalNodes>
            0 -1 1845 1.0829984239535406e-04</internalNodes>
          <leafValues>
            2.8727117180824280e-01 -2.8727117180824280e-01</leafValues></_>
        <_>
          <internalNodes>
            0 -1 532 -2.3247096687555313e-03</internalNodes>
          <leafValues>
            2.9208064079284668e-01 -2.9208064079284668e-01</leafValues></_>
        <_>
          <internalNodes>
            0 -1 1095 8.4515137132257223e-05</internalNodes>
          <leafValues>
            2.8603547811508179e-01 -2.8603547811508179e-01</leafValues></_>
        <_>
          <internalNodes>
            0 -1 722 -2.0061112008988857e-03</internalNodes>
          <leafValues>
            2.9380917549133301e-01 -2.9380917549133301e-01</leafValues></_>
        <_>
          <internalNodes>
            0 -1 94 4.8529118066653609e-04</internalNodes>
          <leafValues>
            2.7619010210037231e-01 -2.7619010210037231e-01</leafValues></_>
        <_>
          <internalNodes>
            0 -1 115 1.8510024994611740e-02</internalNodes>
          <leafValues>
            -2.8435960412025452e-01 2.8435960412025452e-01</leafValues></_>
        <_>
          <internalNodes>
            0 -1 318 7.6628820970654488e-03</internalNodes>
          <leafValues>
            2.6131930947303772e-01 -2.6131930947303772e-01</leafValues></_>
        <_>
          <internalNodes>
            0 -1 366 -2.2671222686767578e-03</internalNodes>
          <leafValues>
            2.9914677143096924e-01 -2.9914677143096924e-01</leafValues></_>
        <_>
          <internalNodes>
            0 -1 875 -6.8280205596238375e-04</internalNodes>
          <leafValues>
            -2.6208847761154175e-01 2.6208847761154175e-01</leafValues></_>
        <_>
          <internalNodes>
            0 -1 394 -3.2577896490693092e-03</internalNodes>
          <leafValues>
            2.6659891009330750e-01 -2.6659891009330750e-01</leafValues></_>
        <_>
          <internalNodes>
            0 -1 269 5.1187878852942958e-05</internalNodes>
          <leafValues>
            2.4298457801342010e-01 -2.4298457801342010e-01</leafValues></_>
        <_>
          <internalNodes>
            0 -1 5 -9.2652189778164029e-05</internalNodes>
          <leafValues>
            -2.4203814566135406e-01 2.4203814566135406e-01</leafValues></_>
        <_>
          <internalNodes>
            0 -1 195 9.0398177504539490e-02</internalNodes>
          <leafValues>
            -3.0775576829910278e-01 3.0775576829910278e-01</leafValues></_>
        <_>
          <internalNodes>
            0 -1 507 1.7108317464590073e-02</internalNodes>
          <leafValues>
            2.6389843225479126e-01 -2.6389843225479126e-01</leafValues></_>
        <_>
          <internalNodes>
            0 -1 770 -1.9797366112470627e-02</internalNodes>
          <leafValues>
            3.1261897087097168e-01 -3.1261897087097168e-01</leafValues></_>
        <_>
          <internalNodes>
            0 -1 1147 -7.3768589645624161e-03</internalNodes>
          <leafValues>
            3.1292280554771423e-01 -3.1292280554771423e-01</leafValues></_></weakClassifiers></_>
    <!-- stage 4 -->
    <_>
      <maxWeakCount>65</maxWeakCount>
      <stageThreshold>-2.7865986824035645e+00</stageThreshold>
      <weakClassifiers>
        <_>
          <internalNodes>
            0 -1 1738 5.2420597523450851e-02</internalNodes>
          <leafValues>
            -7.4807643890380859e-01 7.4807643890380859e-01</leafValues></_>
        <_>
          <internalNodes>
            0 -1 731 -2.0979244261980057e-02</internalNodes>
          <leafValues>
            4.7598528861999512e-01 -4.7598528861999512e-01</leafValues></_>
        <_>
          <internalNodes>
            0 -1 924 1.9263813272118568e-02</internalNodes>
          <leafValues>
            -4.3443730473518372e-01 4.3443730473518372e-01</leafValues></_>
        <_>
          <internalNodes>
            0 -1 1680 -1.9758897833526134e-03</internalNodes>
          <leafValues>
            -4.0367650985717773e-01 4.0367650985717773e-01</leafValues></_>
        <_>
          <internalNodes>
            0 -1 540 6.7580848932266235e-02</internalNodes>
          <leafValues>
            -4.3351182341575623e-01 4.3351182341575623e-01</leafValues></_>
        <_>
          <internalNodes>
            0 -1 1097 -9.4600918237119913e-04</internalNodes>
          <leafValues>
            -4.3652558326721191e-01 4.3652558326721191e-01</leafValues></_>
        <_>
          <internalNodes>
            0 -1 365 -1.2024719268083572e-02</internalNodes>
          <leafValues>
            4.0542760491371155e-01 -4.0542760491371155e-01</leafValues></_>
        <_>
          <internalNodes>
            0 -1 862 -5.7430996093899012e-04</internalNodes>
          <leafValues>
            -3.7465408444404602e-01 3.7465408444404602e-01</leafValues></_>
        <_>
          <internalNodes>
            0 -1 693 2.8029317036271095e-03</internalNodes>
          <leafValues>
            3.6854267120361328e-01 -3.6854267120361328e-01</leafValues></_>
        <_>
          <internalNodes>
            0 -1 321 -1.6120777581818402e-04</internalNodes>
          <leafValues>
            -3.1753471493721008e-01 3.1753471493721008e-01</leafValues></_>
        <_>
          <internalNodes>
            0 -1 1339 -3.8354396820068359e-03</internalNodes>
          <leafValues>
            3.7156772613525391e-01 -3.7156772613525391e-01</leafValues></_>
        <_>
          <internalNodes>
            0 -1 768 -2.0030695945024490e-02</internalNodes>
          <leafValues>
            3.5564184188842773e-01 -3.5564184188842773e-01</leafValues></_>
        <_>
          <internalNodes>
            0 -1 1828 2.8106459649279714e-04</internalNodes>
          <leafValues>
            3.4956002235412598e-01 -3.4956002235412598e-01</leafValues></_>
        <_>
          <internalNodes>
            0 -1 1841 3.8529810262843966e-04</internalNodes>
          <leafValues>
            3.1627455353736877e-01 -3.1627455353736877e-01</leafValues></_>
        <_>
          <internalNodes>
            0 -1 320 7.8145909355953336e-05</internalNodes>
          <leafValues>
            3.0261984467506409e-01 -3.0261984467506409e-01</leafValues></_>
        <_>
          <internalNodes>
            0 -1 114 3.5816110670566559e-02</internalNodes>
          <leafValues>
            -3.4823000431060791e-01 3.4823000431060791e-01</leafValues></_>
        <_>
          <internalNodes>
            0 -1 1467 5.2943039918318391e-04</internalNodes>
          <leafValues>
            3.5432213544845581e-01 -3.5432213544845581e-01</leafValues></_>
        <_>
          <internalNodes>
            0 -1 1365 -2.6370878331363201e-03</internalNodes>
          <leafValues>
            3.3241689205169678e-01 -3.3241689205169678e-01</leafValues></_>
        <_>
          <internalNodes>
            0 -1 1376 4.0008490905165672e-03</internalNodes>
          <leafValues>
            2.8007426857948303e-01 -2.8007426857948303e-01</leafValues></_>
        <_>
          <internalNodes>
            0 -1 1140 -6.0579860582947731e-03</internalNodes>
          <leafValues>
            3.1371629238128662e-01 -3.1371629238128662e-01</leafValues></_>
        <_>
          <internalNodes>
            0 -1 910 2.8174534440040588e-02</internalNodes>
          <leafValues>
            -3.2477927207946777e-01 3.2477927207946777e-01</leafValues></_>
        <_>
          <internalNodes>
            0 -1 1201 8.0576492473483086e-04</internalNodes>
          <leafValues>
            2.9939264059066772e-01 -2.9939264059066772e-01</leafValues></_>
        <_>
          <internalNodes>
            0 -1 1043 -2.6101130060851574e-04</internalNodes>
          <leafValues>
            2.6438668370246887e-01 -2.6438668370246887e-01</leafValues></_>
        <_>
          <internalNodes>
            0 -1 1219 1.6231150366365910e-03</internalNodes>
          <leafValues>
            2.9586711525917053e-01 -2.9586711525917053e-01</leafValues></_>
        <_>
          <internalNodes>
            0 -1 1519 1.3373831287026405e-02</internalNodes>
          <leafValues>
            -3.2308816909790039e-01 3.2308816909790039e-01</leafValues></_>
        <_>
          <internalNodes>
            0 -1 371 1.2109549716114998e-02</internalNodes>
          <leafValues>
            -3.1796503067016602e-01 3.1796503067016602e-01</leafValues></_>
        <_>
          <internalNodes>
            0 -1 1834 4.9509049858897924e-04</internalNodes>
          <leafValues>
            2.6976761221885681e-01 -2.6976761221885681e-01</leafValues></_>
        <_>
          <internalNodes>
            0 -1 103 4.2800777591764927e-03</internalNodes>
          <leafValues>
            -3.0920788645744324e-01 3.0920788645744324e-01</leafValues></_>
        <_>
          <internalNodes>
            0 -1 47 -6.4158961176872253e-02</internalNodes>
          <leafValues>
            -2.8164777159690857e-01 2.8164777159690857e-01</leafValues></_>
        <_>
          <internalNodes>
            0 -1 776 -4.3711695820093155e-02</internalNodes>
          <leafValues>
            3.1214439868927002e-01 -3.1214439868927002e-01</leafValues></_>
        <_>
          <internalNodes>
            0 -1 1105 5.2993732970207930e-04</internalNodes>
          <leafValues>
            3.2164129614830017e-01 -3.2164129614830017e-01</leafValues></_>
        <_>
          <internalNodes>
            0 -1 1160 -7.2301989421248436e-03</internalNodes>
          <leafValues>
            3.5142192244529724e-01 -3.5142192244529724e-01</leafValues></_>
        <_>
          <internalNodes>
            0 -1 1840 4.3280853424221277e-04</internalNodes>
          <leafValues>
            2.9983246326446533e-01 -2.9983246326446533e-01</leafValues></_>
        <_>
          <internalNodes>
            0 -1 594 8.4778299788013101e-04</internalNodes>
          <leafValues>
            2.6154997944831848e-01 -2.6154997944831848e-01</leafValues></_>
        <_>
          <internalNodes>
            0 -1 491 -1.1060831602662802e-03</internalNodes>
          <leafValues>
            2.7410623431205750e-01 -2.7410623431205750e-01</leafValues></_>
        <_>
          <internalNodes>
            0 -1 911 5.4694913327693939e-02</internalNodes>
          <leafValues>
            3.0520245432853699e-01 -3.0520245432853699e-01</leafValues></_>
        <_>
          <internalNodes>
            0 -1 111 -5.3858431056141853e-03</internalNodes>
          <leafValues>
            2.9666593670845032e-01 -2.9666593670845032e-01</leafValues></_>
        <_>
          <internalNodes>
            0 -1 1302 -9.4341416843235493e-04</internalNodes>
          <leafValues>
            -2.6694107055664062e-01 2.6694107055664062e-01</leafValues></_>
        <_>
          <internalNodes>
            0 -1 1049 3.9552703499794006e-02</internalNodes>
          <leafValues>
            -2.8069472312927246e-01 2.8069472312927246e-01</leafValues></_>
        <_>
          <internalNodes>
            0 -1 914 4.7970525920391083e-02</internalNodes>
          <leafValues>
            -3.2479199767112732e-01 3.2479199767112732e-01</leafValues></_>
        <_>
          <internalNodes>
            0 -1 800 -2.8642001561820507e-03</internalNodes>
          <leafValues>
            2.8866767883300781e-01 -2.8866767883300781e-01</leafValues></_>
        <_>
          <internalNodes>
            0 -1 692 -5.8561759069561958e-03</internalNodes>
          <leafValues>
            2.8238716721534729e-01 -2.8238716721534729e-01</leafValues></_>
        <_>
          <internalNodes>
            0 -1 1826 -2.1849235054105520e-04</internalNodes>
          <leafValues>
            -2.6534354686737061e-01 2.6534354686737061e-01</leafValues></_>
        <_>
          <internalNodes>
            0 -1 166 2.0707535743713379e-01</internalNodes>
          <leafValues>
            -2.9788267612457275e-01 2.9788267612457275e-01</leafValues></_>
        <_>
          <internalNodes>
            0 -1 892 -8.4261953830718994e-02</internalNodes>
          <leafValues>
            -2.9548677802085876e-01 2.9548677802085876e-01</leafValues></_>
        <_>
          <internalNodes>
            0 -1 1777 4.7128121368587017e-03</internalNodes>
          <leafValues>
            -3.1599974632263184e-01 3.1599974632263184e-01</leafValues></_>
        <_>
          <internalNodes>
            0 -1 1083 8.9872046373784542e-04</internalNodes>
          <leafValues>
            2.9851728677749634e-01 -2.9851728677749634e-01</leafValues></_>
        <_>
          <internalNodes>
            0 -1 1145 -3.8270263466984034e-03</internalNodes>
          <leafValues>
            2.5586390495300293e-01 -2.5586390495300293e-01</leafValues></_>
        <_>
          <internalNodes>
            0 -1 1457 5.8835215866565704e-02</internalNodes>
          <leafValues>
            2.4358014762401581e-01 -2.4358014762401581e-01</leafValues></_>
        <_>
          <internalNodes>
            0 -1 1725 4.0349885821342468e-03</internalNodes>
          <leafValues>
            -3.1538122892379761e-01 3.1538122892379761e-01</leafValues></_>
        <_>
          <internalNodes>
            0 -1 1836 -3.1244645360857248e-03</internalNodes>
          <leafValues>
            -2.3683896660804749e-01 2.3683896660804749e-01</leafValues></_>
        <_>
          <internalNodes>
            0 -1 1639 -3.4091195557266474e-03</internalNodes>
          <leafValues>
            3.0141133069992065e-01 -3.0141133069992065e-01</leafValues></_>
        <_>
          <internalNodes>
            0 -1 3 -6.7062297603115439e-05</internalNodes>
          <leafValues>
            -2.4609199166297913e-01 2.4609199166297913e-01</leafValues></_>
        <_>
          <internalNodes>
            0 -1 78 -4.8484834842383862e-03</internalNodes>
          <leafValues>
            2.5502637028694153e-01 -2.5502637028694153e-01</leafValues></_>
        <_>
          <internalNodes>
            0 -1 1752 -1.7080919351428747e-03</internalNodes>
          <leafValues>
            -2.4096818268299103e-01 2.4096818268299103e-01</leafValues></_>
        <_>
          <internalNodes>
            0 -1 1662 -7.6170754618942738e-03</internalNodes>
          <leafValues>
            2.7448934316635132e-01 -2.7448934316635132e-01</leafValues></_>
        <_>
          <internalNodes>
            0 -1 1712 -1.8999993801116943e-02</internalNodes>
          <leafValues>
            2.6588734984397888e-01 -2.6588734984397888e-01</leafValues></_>
        <_>
          <internalNodes>
            0 -1 528 2.7453415095806122e-02</internalNodes>
          <leafValues>
            2.4474775791168213e-01 -2.4474775791168213e-01</leafValues></_>
        <_>
          <internalNodes>
            0 -1 1515 -9.3832192942500114e-04</internalNodes>
          <leafValues>
            2.7733001112937927e-01 -2.7733001112937927e-01</leafValues></_>
        <_>
          <internalNodes>
            0 -1 819 1.6432318836450577e-02</internalNodes>
          <leafValues>
            -2.7847629785537720e-01 2.7847629785537720e-01</leafValues></_>
        <_>
          <internalNodes>
            0 -1 1213 1.6721182037144899e-03</internalNodes>
          <leafValues>
            2.5759768486022949e-01 -2.5759768486022949e-01</leafValues></_>
        <_>
          <internalNodes>
            0 -1 928 -1.2134430930018425e-02</internalNodes>
          <leafValues>
            2.6751342415809631e-01 -2.6751342415809631e-01</leafValues></_>
        <_>
          <internalNodes>
            0 -1 1223 9.4819278456270695e-04</internalNodes>
          <leafValues>
            2.7156335115432739e-01 -2.7156335115432739e-01</leafValues></_>
        <_>
          <internalNodes>
            0 -1 1527 -1.1191030498594046e-03</internalNodes>
          <leafValues>
            2.8023549914360046e-01 -2.8023549914360046e-01</leafValues></_>
        <_>
          <internalNodes>
            0 -1 1822 6.3452299218624830e-04</internalNodes>
          <leafValues>
            2.6604837179183960e-01 -2.6604837179183960e-01</leafValues></_></weakClassifiers></_>
    <!-- stage 5 -->
    <_>
      <maxWeakCount>83</maxWeakCount>
      <stageThreshold>-2.7537229061126709e+00</stageThreshold>
      <weakClassifiers>
        <_>
          <internalNodes>
            0 -1 342 8.7137275934219360e-01</internalNodes>
          <leafValues>
            -7.9944759607315063e-01 7.9944759607315063e-01</leafValues></_>
        <_>
          <internalNodes>
            0 -1 903 1.6075285151600838e-02</internalNodes>
          <leafValues>
            -4.6848469972610474e-01 4.6848469972610474e-01</leafValues></_>
        <_>
          <internalNodes>
            0 -1 1303 -2.6565864682197571e-02</internalNodes>
          <leafValues>
            3.8716664910316467e-01 -3.8716664910316467e-01</leafValues></_>
        <_>
          <internalNodes>
            0 -1 717 4.0346797322854400e-04</internalNodes>
          <leafValues>
            3.8075774908065796e-01 -3.8075774908065796e-01</leafValues></_>
        <_>
          <internalNodes>
            0 -1 1599 4.6792393550276756e-03</internalNodes>
          <leafValues>
            -3.6936864256858826e-01 3.6936864256858826e-01</leafValues></_>
        <_>
          <internalNodes>
            0 -1 1430 -3.3458252437412739e-03</internalNodes>
          <leafValues>
            3.3530494570732117e-01 -3.3530494570732117e-01</leafValues></_>
        <_>
          <internalNodes>
            0 -1 1300 3.2366183586418629e-03</internalNodes>
          <leafValues>
            3.4520769119262695e-01 -3.4520769119262695e-01</leafValues></_>
        <_>
          <internalNodes>
            0 -1 480 -8.2963015884160995e-03</internalNodes>
          <leafValues>
            3.9845106005668640e-01 -3.9845106005668640e-01</leafValues></_>
        <_>
          <internalNodes>
            0 -1 1384 -1.0587305296212435e-03</internalNodes>
          <leafValues>
            -3.3408722281455994e-01 3.3408722281455994e-01</leafValues></_>
        <_>
          <internalNodes>
            0 -1 460 -2.6317968964576721e-02</internalNodes>
          <leafValues>
            3.3539590239524841e-01 -3.3539590239524841e-01</leafValues></_>
        <_>
          <internalNodes>
            0 -1 781 -1.0930473217740655e-03</internalNodes>
          <leafValues>
            3.2213619351387024e-01 -3.2213619351387024e-01</leafValues></_>
        <_>
          <internalNodes>
            0 -1 1098 1.2991862604394555e-03</internalNodes>
          <leafValues>
            2.9031342267990112e-01 -2.9031342267990112e-01</leafValues></_>
        <_>
          <internalNodes>
            0 -1 1604 3.0173198319971561e-03</internalNodes>
          <leafValues>
            -3.5776916146278381e-01 3.5776916146278381e-01</leafValues></_>
        <_>
          <internalNodes>
            0 -1 134 1.4505372382700443e-03</internalNodes>
          <leafValues>
            -3.1200218200683594e-01 3.1200218200683594e-01</leafValues></_>
        <_>
          <internalNodes>
            0 -1 1176 3.3836398273706436e-02</internalNodes>
          <leafValues>
            3.2782354950904846e-01 -3.2782354950904846e-01</leafValues></_>
        <_>
          <internalNodes>
            0 -1 1689 -3.7835626862943172e-03</internalNodes>
          <leafValues>
            3.2759979367256165e-01 -3.2759979367256165e-01</leafValues></_>
        <_>
          <internalNodes>
            0 -1 628 -7.1413315832614899e-02</internalNodes>
          <leafValues>
            -2.4778723716735840e-01 2.4778723716735840e-01</leafValues></_>
        <_>
          <internalNodes>
            0 -1 1705 7.7733732759952545e-03</internalNodes>
          <leafValues>
            -3.6388093233108521e-01 3.6388093233108521e-01</leafValues></_>
        <_>
          <internalNodes>
            0 -1 1299 1.6796882264316082e-03</internalNodes>
          <leafValues>
            2.4717353284358978e-01 -2.4717353284358978e-01</leafValues></_>
        <_>
          <internalNodes>
            0 -1 1202 -9.7387784626334906e-04</internalNodes>
          <leafValues>
            3.2410106062889099e-01 -3.2410106062889099e-01</leafValues></_>
        <_>
          <internalNodes>
            0 -1 1146 9.7227953374385834e-03</internalNodes>
          <leafValues>
            -2.6793009042739868e-01 2.6793009042739868e-01</leafValues></_>
        <_>
          <internalNodes>
            0 -1 1348 -3.7630791775882244e-03</internalNodes>
          <leafValues>
            3.0265122652053833e-01 -3.0265122652053833e-01</leafValues></_>
        <_>
          <internalNodes>
            0 -1 506 -2.7080286294221878e-02</internalNodes>
          <leafValues>
            -2.6178753376007080e-01 2.6178753376007080e-01</leafValues></_>
        <_>
          <internalNodes>
            0 -1 634 -1.8171146512031555e-02</internalNodes>
          <leafValues>
            3.3613309264183044e-01 -3.3613309264183044e-01</leafValues></_>
        <_>
          <internalNodes>
            0 -1 236 2.8293233364820480e-02</internalNodes>
          <leafValues>
            2.7398672699928284e-01 -2.7398672699928284e-01</leafValues></_>
        <_>
          <internalNodes>
            0 -1 388 -1.8577659502625465e-03</internalNodes>
          <leafValues>
            3.2808867096900940e-01 -3.2808867096900940e-01</leafValues></_>
        <_>
          <internalNodes>
            0 -1 1112 -5.7851430028676987e-04</internalNodes>
          <leafValues>
            -2.5425618886947632e-01 2.5425618886947632e-01</leafValues></_>
        <_>
          <internalNodes>
            0 -1 177 1.4263025950640440e-03</internalNodes>
          <leafValues>
            -3.2388556003570557e-01 3.2388556003570557e-01</leafValues></_>
        <_>
          <internalNodes>
            0 -1 1016 1.0215622186660767e-01</internalNodes>
          <leafValues>
            2.7195733785629272e-01 -2.7195733785629272e-01</leafValues></_>
        <_>
          <internalNodes>
            0 -1 286 2.6638580486178398e-02</internalNodes>
          <leafValues>
            -3.1314733624458313e-01 3.1314733624458313e-01</leafValues></_>
        <_>
          <internalNodes>
            0 -1 561 -6.7992648109793663e-04</internalNodes>
          <leafValues>
            2.4652363359928131e-01 -2.4652363359928131e-01</leafValues></_>
        <_>
          <internalNodes>
            0 -1 1289 8.3135776221752167e-03</internalNodes>
          <leafValues>
            2.6944065093994141e-01 -2.6944065093994141e-01</leafValues></_>
        <_>
          <internalNodes>
            0 -1 925 -2.1171785891056061e-02</internalNodes>
          <leafValues>
            2.8904521465301514e-01 -2.8904521465301514e-01</leafValues></_>
        <_>
          <internalNodes>
            0 -1 1320 2.1498396992683411e-02</internalNodes>
          <leafValues>
            -2.9688984155654907e-01 2.9688984155654907e-01</leafValues></_>
        <_>
          <internalNodes>
            0 -1 1516 -6.1506358906626701e-04</internalNodes>
          <leafValues>
            2.6971149444580078e-01 -2.6971149444580078e-01</leafValues></_>
        <_>
          <internalNodes>
            0 -1 24 5.8406312018632889e-03</internalNodes>
          <leafValues>
            -2.9142487049102783e-01 2.9142487049102783e-01</leafValues></_>
        <_>
          <internalNodes>
            0 -1 1468 3.8787809899076819e-04</internalNodes>
          <leafValues>
            2.3085892200469971e-01 -2.3085892200469971e-01</leafValues></_>
        <_>
          <internalNodes>
            0 -1 1551 -2.1376088261604309e-03</internalNodes>
          <leafValues>
            2.6260590553283691e-01 -2.6260590553283691e-01</leafValues></_>
        <_>
          <internalNodes>
            0 -1 764 -5.8834644732996821e-05</internalNodes>
          <leafValues>
            2.6662370562553406e-01 -2.6662370562553406e-01</leafValues></_>
        <_>
          <internalNodes>
            0 -1 539 5.2193757146596909e-03</internalNodes>
          <leafValues>
            -2.7852708101272583e-01 2.7852708101272583e-01</leafValues></_>
        <_>
          <internalNodes>
            0 -1 1366 4.8524267971515656e-02</internalNodes>
          <leafValues>
            2.5007826089859009e-01 -2.5007826089859009e-01</leafValues></_>
        <_>
          <internalNodes>
            0 -1 1357 4.3496698141098022e-02</internalNodes>
          <leafValues>
            -3.2071325182914734e-01 3.2071325182914734e-01</leafValues></_>
        <_>
          <internalNodes>
            0 -1 1375 3.3731185831129551e-03</internalNodes>
          <leafValues>
            2.5557732582092285e-01 -2.5557732582092285e-01</leafValues></_>
        <_>
          <internalNodes>
            0 -1 600 -1.2568535748869181e-03</internalNodes>
          <leafValues>
            2.9642963409423828e-01 -2.9642963409423828e-01</leafValues></_>
        <_>
          <internalNodes>
            0 -1 1053 -1.3734172098338604e-03</internalNodes>
          <leafValues>
            2.2873394191265106e-01 -2.2873394191265106e-01</leafValues></_>
        <_>
          <internalNodes>
            0 -1 952 3.7182617234066129e-05</internalNodes>
          <leafValues>
            -2.4115744233131409e-01 2.4115744233131409e-01</leafValues></_>
        <_>
          <internalNodes>
            0 -1 851 2.8932059649378061e-04</internalNodes>
          <leafValues>
            2.3778697848320007e-01 -2.3778697848320007e-01</leafValues></_>
        <_>
          <internalNodes>
            0 -1 1074 -5.2044203039258718e-04</internalNodes>
          <leafValues>
            2.5707527995109558e-01 -2.5707527995109558e-01</leafValues></_>
        <_>
          <internalNodes>
            0 -1 1215 3.4809652715921402e-03</internalNodes>
          <leafValues>
            2.4484360218048096e-01 -2.4484360218048096e-01</leafValues></_>
        <_>
          <internalNodes>
            0 -1 1274 1.0043838992714882e-03</internalNodes>
          <leafValues>
            -2.8021341562271118e-01 2.8021341562271118e-01</leafValues></_>
        <_>
          <internalNodes>
            0 -1 1687 3.9234728319570422e-04</internalNodes>
          <leafValues>
            2.1435064077377319e-01 -2.1435064077377319e-01</leafValues></_>
        <_>
          <internalNodes>
            0 -1 263 3.0919697880744934e-01</internalNodes>
          <leafValues>
            -2.5299328565597534e-01 2.5299328565597534e-01</leafValues></_>
        <_>
          <internalNodes>
            0 -1 967 1.7021715175360441e-03</internalNodes>
          <leafValues>
            2.7546721696853638e-01 -2.7546721696853638e-01</leafValues></_>
        <_>
          <internalNodes>
            0 -1 465 -2.2850814275443554e-03</internalNodes>
          <leafValues>
            2.3746921122074127e-01 -2.3746921122074127e-01</leafValues></_>
        <_>
          <internalNodes>
            0 -1 1561 -2.3227070050779730e-04</internalNodes>
          <leafValues>
            -2.2554007172584534e-01 2.2554007172584534e-01</leafValues></_>
        <_>
          <internalNodes>
            0 -1 1785 8.2864584401249886e-03</internalNodes>
          <leafValues>
            -2.8843128681182861e-01 2.8843128681182861e-01</leafValues></_>
        <_>
          <internalNodes>
            0 -1 87 6.3631311058998108e-02</internalNodes>
          <leafValues>
            2.3798888921737671e-01 -2.3798888921737671e-01</leafValues></_>
        <_>
          <internalNodes>
            0 -1 1786 -1.0227842256426811e-02</internalNodes>
          <leafValues>
            2.8214529156684875e-01 -2.8214529156684875e-01</leafValues></_>
        <_>
          <internalNodes>
            0 -1 309 1.0618017986416817e-02</internalNodes>
          <leafValues>
            2.3444233834743500e-01 -2.3444233834743500e-01</leafValues></_>
        <_>
          <internalNodes>
            0 -1 93 2.1401716396212578e-02</internalNodes>
          <leafValues>
            -2.7007114887237549e-01 2.7007114887237549e-01</leafValues></_>
        <_>
          <internalNodes>
            0 -1 1079 -3.0707267578691244e-03</internalNodes>
          <leafValues>
            -2.3244065046310425e-01 2.3244065046310425e-01</leafValues></_>
        <_>
          <internalNodes>
            0 -1 1165 -1.0443894192576408e-02</internalNodes>
          <leafValues>
            2.6822093129158020e-01 -2.6822093129158020e-01</leafValues></_>
        <_>
          <internalNodes>
            0 -1 47 -5.6363113224506378e-02</internalNodes>
          <leafValues>
            -2.4449126422405243e-01 2.4449126422405243e-01</leafValues></_>
        <_>
          <internalNodes>
            0 -1 31 -1.1062377132475376e-02</internalNodes>
          <leafValues>
            3.1027594208717346e-01 -3.1027594208717346e-01</leafValues></_>
        <_>
          <internalNodes>
            0 -1 1619 6.9307489320635796e-04</internalNodes>
          <leafValues>
            2.3351766169071198e-01 -2.3351766169071198e-01</leafValues></_>
        <_>
          <internalNodes>
            0 -1 1755 1.6811717068776488e-04</internalNodes>
          <leafValues>
            2.3301976919174194e-01 -2.3301976919174194e-01</leafValues></_>
        <_>
          <internalNodes>
            0 -1 1435 -9.3331709504127502e-03</internalNodes>
          <leafValues>
            2.3238870501518250e-01 -2.3238870501518250e-01</leafValues></_>
        <_>
          <internalNodes>
            0 -1 1797 5.1519349217414856e-03</internalNodes>
          <leafValues>
            2.1959339082241058e-01 -2.1959339082241058e-01</leafValues></_>
        <_>
          <internalNodes>
            0 -1 1580 -1.7772212624549866e-02</internalNodes>
          <leafValues>
            2.6494911313056946e-01 -2.6494911313056946e-01</leafValues></_>
        <_>
          <internalNodes>
            0 -1 1268 -1.0052423924207687e-02</internalNodes>
          <leafValues>
            2.2996465861797333e-01 -2.2996465861797333e-01</leafValues></_>
        <_>
          <internalNodes>
            0 -1 1543 -4.6850051148794591e-04</internalNodes>
          <leafValues>
            -2.3578329384326935e-01 2.3578329384326935e-01</leafValues></_>
        <_>
          <internalNodes>
            0 -1 1563 -4.6668495051562786e-03</internalNodes>
          <leafValues>
            2.5038933753967285e-01 -2.5038933753967285e-01</leafValues></_>
        <_>
          <internalNodes>
            0 -1 1004 6.2911759596318007e-04</internalNodes>
          <leafValues>
            -2.3285071551799774e-01 2.3285071551799774e-01</leafValues></_>
        <_>
          <internalNodes>
            0 -1 316 6.7334729246795177e-03</internalNodes>
          <leafValues>
            1.9538263976573944e-01 -1.9538263976573944e-01</leafValues></_>
        <_>
          <internalNodes>
            0 -1 669 -1.1486144736409187e-02</internalNodes>
          <leafValues>
            2.4141688644886017e-01 -2.4141688644886017e-01</leafValues></_>
        <_>
          <internalNodes>
            0 -1 1146 -2.1489437203854322e-03</internalNodes>
          <leafValues>
            -2.8415846824645996e-01 2.8415846824645996e-01</leafValues></_>
        <_>
          <internalNodes>
            0 -1 1054 -4.8655886203050613e-03</internalNodes>
          <leafValues>
            -2.2703507542610168e-01 2.2703507542610168e-01</leafValues></_>
        <_>
          <internalNodes>
            0 -1 378 -1.4706689398735762e-03</internalNodes>
          <leafValues>
            2.3046867549419403e-01 -2.3046867549419403e-01</leafValues></_>
        <_>
          <internalNodes>
            0 -1 469 -6.5077510953415185e-05</internalNodes>
          <leafValues>
            2.2808811068534851e-01 -2.2808811068534851e-01</leafValues></_>
        <_>
          <internalNodes>
            0 -1 1701 -1.3571354746818542e-01</internalNodes>
          <leafValues>
            2.2867979109287262e-01 -2.2867979109287262e-01</leafValues></_>
        <_>
          <internalNodes>
            0 -1 1750 -9.7608834039419889e-04</internalNodes>
          <leafValues>
            -2.1582594513893127e-01 2.1582594513893127e-01</leafValues></_>
        <_>
          <internalNodes>
            0 -1 459 -5.7554000522941351e-04</internalNodes>
          <leafValues>
            2.2934627532958984e-01 -2.2934627532958984e-01</leafValues></_>
        <_>
          <internalNodes>
            0 -1 1625 4.9181953072547913e-03</internalNodes>
          <leafValues>
            2.1542862057685852e-01 -2.1542862057685852e-01</leafValues></_></weakClassifiers></_>
    <!-- stage 6 -->
    <_>
      <maxWeakCount>87</maxWeakCount>
      <stageThreshold>-2.4671051502227783e+00</stageThreshold>
      <weakClassifiers>
        <_>
          <internalNodes>
            0 -1 1700 1.8939799070358276e-01</internalNodes>
          <leafValues>
            -6.4298325777053833e-01 6.4298325777053833e-01</leafValues></_>
        <_>
          <internalNodes>
            0 -1 858 2.6959583163261414e-02</internalNodes>
          <leafValues>
            -4.3899947404861450e-01 4.3899947404861450e-01</leafValues></_>
        <_>
          <internalNodes>
            0 -1 762 1.8506150692701340e-02</internalNodes>
          <leafValues>
            -3.8805192708969116e-01 3.8805192708969116e-01</leafValues></_>
        <_>
          <internalNodes>
            0 -1 1501 1.1227801442146301e-02</internalNodes>
          <leafValues>
            -3.2304030656814575e-01 3.2304030656814575e-01</leafValues></_>
        <_>
          <internalNodes>
            0 -1 1212 1.8625378143042326e-03</internalNodes>
          <leafValues>
            3.5156732797622681e-01 -3.5156732797622681e-01</leafValues></_>
        <_>
          <internalNodes>
            0 -1 1334 -1.5237912535667419e-02</internalNodes>
          <leafValues>
            3.3755618333816528e-01 -3.3755618333816528e-01</leafValues></_>
        <_>
          <internalNodes>
            0 -1 503 2.3031296208500862e-02</internalNodes>
          <leafValues>
            -3.7192210555076599e-01 3.7192210555076599e-01</leafValues></_>
        <_>
          <internalNodes>
            0 -1 1601 3.7523717037402093e-04</internalNodes>
          <leafValues>
            -3.2316532731056213e-01 3.2316532731056213e-01</leafValues></_>
        <_>
          <internalNodes>
            0 -1 73 2.8555130586028099e-02</internalNodes>
          <leafValues>
            2.9497766494750977e-01 -2.9497766494750977e-01</leafValues></_>
        <_>
          <internalNodes>
            0 -1 1665 -6.7894072271883488e-03</internalNodes>
          <leafValues>
            3.0959531664848328e-01 -3.0959531664848328e-01</leafValues></_>
        <_>
          <internalNodes>
            0 -1 718 -3.9201893378049135e-04</internalNodes>
          <leafValues>
            -2.5560772418975830e-01 2.5560772418975830e-01</leafValues></_>
        <_>
          <internalNodes>
            0 -1 1697 8.5615683346986771e-03</internalNodes>
          <leafValues>
            -3.2215884327888489e-01 3.2215884327888489e-01</leafValues></_>
        <_>
          <internalNodes>
            0 -1 968 2.6399288326501846e-03</internalNodes>
          <leafValues>
            2.8322449326515198e-01 -2.8322449326515198e-01</leafValues></_>
        <_>
          <internalNodes>
            0 -1 816 9.1173119843006134e-02</internalNodes>
          <leafValues>
            -2.9456609487533569e-01 2.9456609487533569e-01</leafValues></_>
        <_>
          <internalNodes>
            0 -1 217 5.5807549506425858e-04</internalNodes>
          <leafValues>
            2.7149900794029236e-01 -2.7149900794029236e-01</leafValues></_>
        <_>
          <internalNodes>
            0 -1 453 -4.1987700387835503e-03</internalNodes>
          <leafValues>
            2.6260760426521301e-01 -2.6260760426521301e-01</leafValues></_>
        <_>
          <internalNodes>
            0 -1 676 -3.3975793048739433e-03</internalNodes>
          <leafValues>
            2.5490313768386841e-01 -2.5490313768386841e-01</leafValues></_>
        <_>
          <internalNodes>
            0 -1 937 3.5974901169538498e-02</internalNodes>
          <leafValues>
            2.5800976157188416e-01 -2.5800976157188416e-01</leafValues></_>
        <_>
          <internalNodes>
            0 -1 807 4.5358683913946152e-02</internalNodes>
          <leafValues>
            -3.4851896762847900e-01 3.4851896762847900e-01</leafValues></_>
        <_>
          <internalNodes>
            0 -1 690 -1.0791476815938950e-03</internalNodes>
          <leafValues>
            3.1662255525588989e-01 -3.1662255525588989e-01</leafValues></_>
        <_>
          <internalNodes>
            0 -1 1216 7.1897748857736588e-03</internalNodes>
          <leafValues>
            2.6829004287719727e-01 -2.6829004287719727e-01</leafValues></_>
        <_>
          <internalNodes>
            0 -1 1749 -8.3231870085000992e-03</internalNodes>
          <leafValues>
            3.1442582607269287e-01 -3.1442582607269287e-01</leafValues></_>
        <_>
          <internalNodes>
            0 -1 772 -5.7222358882427216e-02</internalNodes>
          <leafValues>
            -2.4510602653026581e-01 2.4510602653026581e-01</leafValues></_>
        <_>
          <internalNodes>
            0 -1 636 7.1306216716766357e-01</internalNodes>
          <leafValues>
            -3.2540935277938843e-01 3.2540935277938843e-01</leafValues></_>
        <_>
          <internalNodes>
            0 -1 1190 3.9930092170834541e-03</internalNodes>
          <leafValues>
            2.6629915833473206e-01 -2.6629915833473206e-01</leafValues></_>
        <_>
          <internalNodes>
            0 -1 495 -3.8472176529467106e-03</internalNodes>
          <leafValues>
            2.6535701751708984e-01 -2.6535701751708984e-01</leafValues></_>
        <_>
          <internalNodes>
            0 -1 867 -1.0603998089209199e-03</internalNodes>
          <leafValues>
            -2.6966914534568787e-01 2.6966914534568787e-01</leafValues></_>
        <_>
          <internalNodes>
            0 -1 19 1.8664086237549782e-02</internalNodes>
          <leafValues>
            -2.5826624035835266e-01 2.5826624035835266e-01</leafValues></_>
        <_>
          <internalNodes>
            0 -1 1197 -8.7322856415994465e-05</internalNodes>
          <leafValues>
            2.7884307503700256e-01 -2.7884307503700256e-01</leafValues></_>
        <_>
          <internalNodes>
            0 -1 353 -5.8385170996189117e-03</internalNodes>
          <leafValues>
            2.6487001776695251e-01 -2.6487001776695251e-01</leafValues></_>
        <_>
          <internalNodes>
            0 -1 736 4.1145409340970218e-04</internalNodes>
          <leafValues>
            2.3630979657173157e-01 -2.3630979657173157e-01</leafValues></_>
        <_>
          <internalNodes>
            0 -1 1796 -1.4071594341658056e-04</internalNodes>
          <leafValues>
            -2.3250870406627655e-01 2.3250870406627655e-01</leafValues></_>
        <_>
          <internalNodes>
            0 -1 1574 -2.7490989305078983e-03</internalNodes>
          <leafValues>
            2.6013496518135071e-01 -2.6013496518135071e-01</leafValues></_>
        <_>
          <internalNodes>
            0 -1 120 4.0568649768829346e-02</internalNodes>
          <leafValues>
            2.4275602400302887e-01 -2.4275602400302887e-01</leafValues></_>
        <_>
          <internalNodes>
            0 -1 1520 -2.3464566096663475e-02</internalNodes>
          <leafValues>
            2.5156480073928833e-01 -2.5156480073928833e-01</leafValues></_>
        <_>
          <internalNodes>
            0 -1 1111 -1.1846518609672785e-03</internalNodes>
          <leafValues>
            -2.4540020525455475e-01 2.4540020525455475e-01</leafValues></_>
        <_>
          <internalNodes>
            0 -1 1623 3.9590196684002876e-03</internalNodes>
          <leafValues>
            -2.5996869802474976e-01 2.5996869802474976e-01</leafValues></_>
        <_>
          <internalNodes>
            0 -1 1175 -2.4637468159198761e-03</internalNodes>
          <leafValues>
            2.3634643852710724e-01 -2.3634643852710724e-01</leafValues></_>
        <_>
          <internalNodes>
            0 -1 1121 1.0548228397965431e-02</internalNodes>
          <leafValues>
            2.0944809913635254e-01 -2.0944809913635254e-01</leafValues></_>
        <_>
          <internalNodes>
            0 -1 1264 3.2291807234287262e-02</internalNodes>
          <leafValues>
            -2.9238429665565491e-01 2.9238429665565491e-01</leafValues></_>
        <_>
          <internalNodes>
            0 -1 1451 -2.1456768736243248e-03</internalNodes>
          <leafValues>
            2.5219091773033142e-01 -2.5219091773033142e-01</leafValues></_>
        <_>
          <internalNodes>
            0 -1 691 1.7716541886329651e-02</internalNodes>
          <leafValues>
            2.3951734602451324e-01 -2.3951734602451324e-01</leafValues></_>
        <_>
          <internalNodes>
            0 -1 771 3.4857518970966339e-02</internalNodes>
          <leafValues>
            -2.6367405056953430e-01 2.6367405056953430e-01</leafValues></_>
        <_>
          <internalNodes>
            0 -1 1441 2.3401260841637850e-03</internalNodes>
          <leafValues>
            -2.6710703969001770e-01 2.6710703969001770e-01</leafValues></_>
        <_>
          <internalNodes>
            0 -1 1827 2.3344490909948945e-04</internalNodes>
          <leafValues>
            2.3495873808860779e-01 -2.3495873808860779e-01</leafValues></_>
        <_>
          <internalNodes>
            0 -1 27 1.4538509771227837e-02</internalNodes>
          <leafValues>
            -2.3252777755260468e-01 2.3252777755260468e-01</leafValues></_>
        <_>
          <internalNodes>
            0 -1 1196 3.3234214060939848e-04</internalNodes>
          <leafValues>
            2.1924920380115509e-01 -2.1924920380115509e-01</leafValues></_>
        <_>
          <internalNodes>
            0 -1 1783 -2.1133553236722946e-03</internalNodes>
          <leafValues>
            2.3637335002422333e-01 -2.3637335002422333e-01</leafValues></_>
        <_>
          <internalNodes>
            0 -1 993 7.2923060506582260e-03</internalNodes>
          <leafValues>
            2.3896132409572601e-01 -2.3896132409572601e-01</leafValues></_>
        <_>
          <internalNodes>
            0 -1 1120 -3.3303722739219666e-03</internalNodes>
          <leafValues>
            2.2053019702434540e-01 -2.2053019702434540e-01</leafValues></_>
        <_>
          <internalNodes>
            0 -1 1128 6.1339512467384338e-04</internalNodes>
          <leafValues>
            -2.5503951311111450e-01 2.5503951311111450e-01</leafValues></_>
        <_>
          <internalNodes>
            0 -1 1827 -4.1016767499968410e-04</internalNodes>
          <leafValues>
            -1.9699595868587494e-01 1.9699595868587494e-01</leafValues></_>
        <_>
          <internalNodes>
            0 -1 604 -2.4992621038109064e-03</internalNodes>
          <leafValues>
            -2.0352777838706970e-01 2.0352777838706970e-01</leafValues></_>
        <_>
          <internalNodes>
            0 -1 1397 -3.1524538993835449e-02</internalNodes>
          <leafValues>
            2.5461241602897644e-01 -2.5461241602897644e-01</leafValues></_>
        <_>
          <internalNodes>
            0 -1 311 -3.3210523542948067e-04</internalNodes>
          <leafValues>
            -2.3030929267406464e-01 2.3030929267406464e-01</leafValues></_>
        <_>
          <internalNodes>
            0 -1 735 6.6327909007668495e-04</internalNodes>
          <leafValues>
            -2.2861324250698090e-01 2.2861324250698090e-01</leafValues></_>
        <_>
          <internalNodes>
            0 -1 595 -8.2154729170724750e-04</internalNodes>
          <leafValues>
            -2.0732241868972778e-01 2.0732241868972778e-01</leafValues></_>
        <_>
          <internalNodes>
            0 -1 81 9.8641753196716309e-02</internalNodes>
          <leafValues>
            -2.3707754909992218e-01 2.3707754909992218e-01</leafValues></_>
        <_>
          <internalNodes>
            0 -1 665 2.7126915752887726e-02</internalNodes>
          <leafValues>
            -2.1004201471805573e-01 2.1004201471805573e-01</leafValues></_>
        <_>
          <internalNodes>
            0 -1 1467 7.1655167266726494e-04</internalNodes>
          <leafValues>
            2.3984265327453613e-01 -2.3984265327453613e-01</leafValues></_>
        <_>
          <internalNodes>
            0 -1 1576 6.5540228970348835e-03</internalNodes>
          <leafValues>
            -2.5437593460083008e-01 2.5437593460083008e-01</leafValues></_>
        <_>
          <internalNodes>
            0 -1 1762 -4.4994661584496498e-03</internalNodes>
          <leafValues>
            -2.3027127981185913e-01 2.3027127981185913e-01</leafValues></_>
        <_>
          <internalNodes>
            0 -1 360 -7.0026388857513666e-04</internalNodes>
          <leafValues>
            2.3270729184150696e-01 -2.3270729184150696e-01</leafValues></_>
        <_>
          <internalNodes>
            0 -1 1774 7.4577023042365909e-05</internalNodes>
          <leafValues>
            2.1609759330749512e-01 -2.1609759330749512e-01</leafValues></_>
        <_>
          <internalNodes>
            0 -1 59 2.2964533418416977e-03</internalNodes>
          <leafValues>
            2.1776595711708069e-01 -2.1776595711708069e-01</leafValues></_>
        <_>
          <internalNodes>
            0 -1 672 -1.3211293146014214e-02</internalNodes>
          <leafValues>
            2.1481733024120331e-01 -2.1481733024120331e-01</leafValues></_>
        <_>
          <internalNodes>
            0 -1 1696 1.5195275656878948e-02</internalNodes>
          <leafValues>
            2.3194161057472229e-01 -2.3194161057472229e-01</leafValues></_>
        <_>
          <internalNodes>
            0 -1 285 -3.4938238095492125e-03</internalNodes>
          <leafValues>
            2.3836617171764374e-01 -2.3836617171764374e-01</leafValues></_>
        <_>
          <internalNodes>
            0 -1 1413 -7.9085163772106171e-02</internalNodes>
          <leafValues>
            2.4866673350334167e-01 -2.4866673350334167e-01</leafValues></_>
        <_>
          <internalNodes>
            0 -1 996 -3.8416869938373566e-04</internalNodes>
          <leafValues>
            -2.3372665047645569e-01 2.3372665047645569e-01</leafValues></_>
        <_>
          <internalNodes>
            0 -1 275 2.5501637719571590e-03</internalNodes>
          <leafValues>
            -2.6386305689811707e-01 2.6386305689811707e-01</leafValues></_>
        <_>
          <internalNodes>
            0 -1 1690 4.4386976514942944e-04</internalNodes>
          <leafValues>
            2.2676482796669006e-01 -2.2676482796669006e-01</leafValues></_>
        <_>
          <internalNodes>
            0 -1 1804 7.0306742563843727e-03</internalNodes>
          <leafValues>
            -2.0475432276725769e-01 2.0475432276725769e-01</leafValues></_>
        <_>
          <internalNodes>
            0 -1 0 -3.2169735641218722e-04</internalNodes>
          <leafValues>
            -2.0521974563598633e-01 2.0521974563598633e-01</leafValues></_>
        <_>
          <internalNodes>
            0 -1 477 9.4831101596355438e-03</internalNodes>
          <leafValues>
            -2.1937814354896545e-01 2.1937814354896545e-01</leafValues></_>
        <_>
          <internalNodes>
            0 -1 1531 2.3235154803842306e-03</internalNodes>
          <leafValues>
            2.3740370571613312e-01 -2.3740370571613312e-01</leafValues></_>
        <_>
          <internalNodes>
            0 -1 687 -1.1913350317627192e-03</internalNodes>
          <leafValues>
            2.2976675629615784e-01 -2.2976675629615784e-01</leafValues></_>
        <_>
          <internalNodes>
            0 -1 891 -1.0868358612060547e-01</internalNodes>
          <leafValues>
            2.5636047124862671e-01 -2.5636047124862671e-01</leafValues></_>
        <_>
          <internalNodes>
            0 -1 1573 -1.6912592574954033e-02</internalNodes>
          <leafValues>
            -2.2044765949249268e-01 2.2044765949249268e-01</leafValues></_>
        <_>
          <internalNodes>
            0 -1 369 -1.3413935899734497e-01</internalNodes>
          <leafValues>
            2.3035569489002228e-01 -2.3035569489002228e-01</leafValues></_>
        <_>
          <internalNodes>
            0 -1 1542 -2.9993450152687728e-04</internalNodes>
          <leafValues>
            -2.3245026171207428e-01 2.3245026171207428e-01</leafValues></_>
        <_>
          <internalNodes>
            0 -1 401 -2.2079860791563988e-03</internalNodes>
          <leafValues>
            2.0734073221683502e-01 -2.0734073221683502e-01</leafValues></_>
        <_>
          <internalNodes>
            0 -1 1306 2.0127452444285154e-04</internalNodes>
          <leafValues>
            2.0485447347164154e-01 -2.0485447347164154e-01</leafValues></_>
        <_>
          <internalNodes>
            0 -1 282 1.5877902507781982e-01</internalNodes>
          <leafValues>
            -2.0672746002674103e-01 2.0672746002674103e-01</leafValues></_>
        <_>
          <internalNodes>
            0 -1 206 -1.6057901084423065e-02</internalNodes>
          <leafValues>
            -2.4830937385559082e-01 2.4830937385559082e-01</leafValues></_>
        <_>
          <internalNodes>
            0 -1 527 -1.3501384295523167e-02</internalNodes>
          <leafValues>
            2.2946333885192871e-01 -2.2946333885192871e-01</leafValues></_>
        <_>
          <internalNodes>
            0 -1 1180 -1.0048985714092851e-03</internalNodes>
          <leafValues>
            2.1601319313049316e-01 -2.1601319313049316e-01</leafValues></_></weakClassifiers></_>
    <!-- stage 7 -->
    <_>
      <maxWeakCount>75</maxWeakCount>
      <stageThreshold>-2.5363249778747559e+00</stageThreshold>
      <weakClassifiers>
        <_>
          <internalNodes>
            0 -1 61 8.8421618938446045e-01</internalNodes>
          <leafValues>
            -6.6193777322769165e-01 6.6193777322769165e-01</leafValues></_>
        <_>
          <internalNodes>
            0 -1 1108 1.1740630492568016e-02</internalNodes>
          <leafValues>
            -5.2289223670959473e-01 5.2289223670959473e-01</leafValues></_>
        <_>
          <internalNodes>
            0 -1 1056 -1.5092822723090649e-03</internalNodes>
          <leafValues>
            4.1026657819747925e-01 -4.1026657819747925e-01</leafValues></_>
        <_>
          <internalNodes>
            0 -1 694 -7.2004197863861918e-04</internalNodes>
          <leafValues>
            -4.0501326322555542e-01 4.0501326322555542e-01</leafValues></_>
        <_>
          <internalNodes>
            0 -1 932 -2.6871878653764725e-02</internalNodes>
          <leafValues>
            3.4451800584793091e-01 -3.4451800584793091e-01</leafValues></_>
        <_>
          <internalNodes>
            0 -1 1618 -7.4588548159226775e-04</internalNodes>
          <leafValues>
            -3.8081470131874084e-01 3.8081470131874084e-01</leafValues></_>
        <_>
          <internalNodes>
            0 -1 1260 2.5114812888205051e-03</internalNodes>
          <leafValues>
            -3.5106837749481201e-01 3.5106837749481201e-01</leafValues></_>
        <_>
          <internalNodes>
            0 -1 250 5.3353672847151756e-03</internalNodes>
          <leafValues>
            -3.4574747085571289e-01 3.4574747085571289e-01</leafValues></_>
        <_>
          <internalNodes>
            0 -1 978 -1.4044429175555706e-02</internalNodes>
          <leafValues>
            -3.8368031382560730e-01 3.8368031382560730e-01</leafValues></_>
        <_>
          <internalNodes>
            0 -1 1222 -3.7721585249528289e-04</internalNodes>
          <leafValues>
            -2.9208138585090637e-01 2.9208138585090637e-01</leafValues></_>
        <_>
          <internalNodes>
            0 -1 434 3.0382293462753296e-01</internalNodes>
          <leafValues>
            -4.1513133049011230e-01 4.1513133049011230e-01</leafValues></_>
        <_>
          <internalNodes>
            0 -1 370 -2.3917664657346904e-04</internalNodes>
          <leafValues>
            2.9231569170951843e-01 -2.9231569170951843e-01</leafValues></_>
        <_>
          <internalNodes>
            0 -1 869 2.8989088605158031e-04</internalNodes>
          <leafValues>
            2.8081989288330078e-01 -2.8081989288330078e-01</leafValues></_>
        <_>
          <internalNodes>
            0 -1 740 -1.0814971756190062e-03</internalNodes>
          <leafValues>
            3.2774317264556885e-01 -3.2774317264556885e-01</leafValues></_>
        <_>
          <internalNodes>
            0 -1 575 -1.6021303599700332e-04</internalNodes>
          <leafValues>
            3.0804529786109924e-01 -3.0804529786109924e-01</leafValues></_>
        <_>
          <internalNodes>
            0 -1 1144 2.3502060503233224e-04</internalNodes>
          <leafValues>
            -3.2411068677902222e-01 3.2411068677902222e-01</leafValues></_>
        <_>
          <internalNodes>
            0 -1 1425 8.2470644265413284e-03</internalNodes>
          <leafValues>
            -2.8711894154548645e-01 2.8711894154548645e-01</leafValues></_>
        <_>
          <internalNodes>
            0 -1 1291 3.7376256659626961e-04</internalNodes>
          <leafValues>
            2.6563331484794617e-01 -2.6563331484794617e-01</leafValues></_>
        <_>
          <internalNodes>
            0 -1 725 9.2084836214780807e-03</internalNodes>
          <leafValues>
            -3.5551193356513977e-01 3.5551193356513977e-01</leafValues></_>
        <_>
          <internalNodes>
            0 -1 154 7.5439408421516418e-02</internalNodes>
          <leafValues>
            2.9666042327880859e-01 -2.9666042327880859e-01</leafValues></_>
        <_>
          <internalNodes>
            0 -1 347 -4.8617837019264698e-03</internalNodes>
          <leafValues>
            3.0011478066444397e-01 -3.0011478066444397e-01</leafValues></_>
        <_>
          <internalNodes>
            0 -1 9 -1.3243895955383778e-03</internalNodes>
          <leafValues>
            -2.5963023304939270e-01 2.5963023304939270e-01</leafValues></_>
        <_>
          <internalNodes>
            0 -1 1041 -1.4276893343776464e-03</internalNodes>
          <leafValues>
            2.5570631027221680e-01 -2.5570631027221680e-01</leafValues></_>
        <_>
          <internalNodes>
            0 -1 1101 6.6452950704842806e-05</internalNodes>
          <leafValues>
            -2.7938482165336609e-01 2.7938482165336609e-01</leafValues></_>
        <_>
          <internalNodes>
            0 -1 1655 5.6621152907609940e-03</internalNodes>
          <leafValues>
            -2.9289150238037109e-01 2.9289150238037109e-01</leafValues></_>
        <_>
          <internalNodes>
            0 -1 312 5.6489492999389768e-04</internalNodes>
          <leafValues>
            2.5829914212226868e-01 -2.5829914212226868e-01</leafValues></_>
        <_>
          <internalNodes>
            0 -1 1495 -1.6121104359626770e-02</internalNodes>
          <leafValues>
            2.5979942083358765e-01 -2.5979942083358765e-01</leafValues></_>
        <_>
          <internalNodes>
            0 -1 1265 -2.8183359652757645e-02</internalNodes>
          <leafValues>
            -3.1568387150764465e-01 3.1568387150764465e-01</leafValues></_>
        <_>
          <internalNodes>
            0 -1 475 -3.9556981064379215e-03</internalNodes>
          <leafValues>
            3.2235869765281677e-01 -3.2235869765281677e-01</leafValues></_>
        <_>
          <internalNodes>
            0 -1 1447 7.5926613062620163e-03</internalNodes>
          <leafValues>
            2.5152459740638733e-01 -2.5152459740638733e-01</leafValues></_>
        <_>
          <internalNodes>
            0 -1 1691 -3.1265276484191418e-03</internalNodes>
          <leafValues>
            2.7413687109947205e-01 -2.7413687109947205e-01</leafValues></_>
        <_>
          <internalNodes>
            0 -1 613 -3.3122280729003251e-04</internalNodes>
          <leafValues>
            2.4852271378040314e-01 -2.4852271378040314e-01</leafValues></_>
        <_>
          <internalNodes>
            0 -1 1745 -3.5471636801958084e-03</internalNodes>
          <leafValues>
            2.4171882867813110e-01 -2.4171882867813110e-01</leafValues></_>
        <_>
          <internalNodes>
            0 -1 1235 2.6698637753725052e-02</internalNodes>
          <leafValues>
            2.6847371459007263e-01 -2.6847371459007263e-01</leafValues></_>
        <_>
          <internalNodes>
            0 -1 1789 9.1858869418501854e-03</internalNodes>
          <leafValues>
            -3.3572244644165039e-01 3.3572244644165039e-01</leafValues></_>
        <_>
          <internalNodes>
            0 -1 64 7.0453338325023651e-02</internalNodes>
          <leafValues>
            2.3877950012683868e-01 -2.3877950012683868e-01</leafValues></_>
        <_>
          <internalNodes>
            0 -1 444 -1.2031545862555504e-02</internalNodes>
          <leafValues>
            3.1164449453353882e-01 -3.1164449453353882e-01</leafValues></_>
        <_>
          <internalNodes>
            0 -1 1272 -9.5433671958744526e-05</internalNodes>
          <leafValues>
            2.9754707217216492e-01 -2.9754707217216492e-01</leafValues></_>
        <_>
          <internalNodes>
            0 -1 688 -6.6912884358316660e-04</internalNodes>
          <leafValues>
            2.3295573890209198e-01 -2.3295573890209198e-01</leafValues></_>
        <_>
          <internalNodes>
            0 -1 616 6.0077376663684845e-02</internalNodes>
          <leafValues>
            -3.1011053919792175e-01 3.1011053919792175e-01</leafValues></_>
        <_>
          <internalNodes>
            0 -1 1521 -1.2796432711184025e-03</internalNodes>
          <leafValues>
            2.3414787650108337e-01 -2.3414787650108337e-01</leafValues></_>
        <_>
          <internalNodes>
            0 -1 828 -9.1431831242516637e-04</internalNodes>
          <leafValues>
            -2.5808665156364441e-01 2.5808665156364441e-01</leafValues></_>
        <_>
          <internalNodes>
            0 -1 854 -1.6535986214876175e-03</internalNodes>
          <leafValues>
            -2.3691822588443756e-01 2.3691822588443756e-01</leafValues></_>
        <_>
          <internalNodes>
            0 -1 713 1.1230424046516418e-02</internalNodes>
          <leafValues>
            -2.9924714565277100e-01 2.9924714565277100e-01</leafValues></_>
        <_>
          <internalNodes>
            0 -1 1315 -6.9054914638400078e-04</internalNodes>
          <leafValues>
            -2.4102215468883514e-01 2.4102215468883514e-01</leafValues></_>
        <_>
          <internalNodes>
            0 -1 462 -1.5188124962151051e-03</internalNodes>
          <leafValues>
            2.5798970460891724e-01 -2.5798970460891724e-01</leafValues></_>
        <_>
          <internalNodes>
            0 -1 1828 8.3290928159840405e-05</internalNodes>
          <leafValues>
            2.3458808660507202e-01 -2.3458808660507202e-01</leafValues></_>
        <_>
          <internalNodes>
            0 -1 1506 -7.1978894993662834e-04</internalNodes>
          <leafValues>
            2.3180413246154785e-01 -2.3180413246154785e-01</leafValues></_>
        <_>
          <internalNodes>
            0 -1 1356 1.2243814999237657e-03</internalNodes>
          <leafValues>
            -2.1910315752029419e-01 2.1910315752029419e-01</leafValues></_>
        <_>
          <internalNodes>
            0 -1 989 4.1386708617210388e-03</internalNodes>
          <leafValues>
            2.1662603318691254e-01 -2.1662603318691254e-01</leafValues></_>
        <_>
          <internalNodes>
            0 -1 574 -1.9340587779879570e-02</internalNodes>
          <leafValues>
            2.7749493718147278e-01 -2.7749493718147278e-01</leafValues></_>
        <_>
          <internalNodes>
            0 -1 463 1.5856504440307617e-02</internalNodes>
          <leafValues>
            2.2896544635295868e-01 -2.2896544635295868e-01</leafValues></_>
        <_>
          <internalNodes>
            0 -1 1286 -1.1980750132352114e-03</internalNodes>
          <leafValues>
            2.6394623517990112e-01 -2.6394623517990112e-01</leafValues></_>
        <_>
          <internalNodes>
            0 -1 412 2.5159399956464767e-03</internalNodes>
          <leafValues>
            -2.5227105617523193e-01 2.5227105617523193e-01</leafValues></_>
        <_>
          <internalNodes>
            0 -1 243 1.3353114947676659e-02</internalNodes>
          <leafValues>
            -2.4705176055431366e-01 2.4705176055431366e-01</leafValues></_>
        <_>
          <internalNodes>
            0 -1 1844 2.1711137378588319e-04</internalNodes>
          <leafValues>
            2.5029915571212769e-01 -2.5029915571212769e-01</leafValues></_>
        <_>
          <internalNodes>
            0 -1 1255 -1.0654625948518515e-03</internalNodes>
          <leafValues>
            2.1277026832103729e-01 -2.1277026832103729e-01</leafValues></_>
        <_>
          <internalNodes>
            0 -1 1846 1.2977003643754870e-04</internalNodes>
          <leafValues>
            2.1358951926231384e-01 -2.1358951926231384e-01</leafValues></_>
        <_>
          <internalNodes>
            0 -1 152 -9.7764612291939557e-05</internalNodes>
          <leafValues>
            2.3288902640342712e-01 -2.3288902640342712e-01</leafValues></_>
        <_>
          <internalNodes>
            0 -1 1469 5.9497589245438576e-04</internalNodes>
          <leafValues>
            2.3752085864543915e-01 -2.3752085864543915e-01</leafValues></_>
        <_>
          <internalNodes>
            0 -1 255 -5.5663019418716431e-02</internalNodes>
          <leafValues>
            2.4541771411895752e-01 -2.4541771411895752e-01</leafValues></_>
        <_>
          <internalNodes>
            0 -1 711 4.7717317938804626e-03</internalNodes>
          <leafValues>
            2.3142956197261810e-01 -2.3142956197261810e-01</leafValues></_>
        <_>
          <internalNodes>
            0 -1 1638 -5.5154639994725585e-04</internalNodes>
          <leafValues>
            2.4515271186828613e-01 -2.4515271186828613e-01</leafValues></_>
        <_>
          <internalNodes>
            0 -1 1408 2.8741810470819473e-02</internalNodes>
          <leafValues>
            2.4649518728256226e-01 -2.4649518728256226e-01</leafValues></_>
        <_>
          <internalNodes>
            0 -1 1782 1.3708880869671702e-03</internalNodes>
          <leafValues>
            -2.6414927840232849e-01 2.6414927840232849e-01</leafValues></_>
        <_>
          <internalNodes>
            0 -1 1395 -1.6969991847872734e-03</internalNodes>
          <leafValues>
            -2.4312512576580048e-01 2.4312512576580048e-01</leafValues></_>
        <_>
          <internalNodes>
            0 -1 1210 -6.3204197213053703e-03</internalNodes>
          <leafValues>
            2.7866679430007935e-01 -2.7866679430007935e-01</leafValues></_>
        <_>
          <internalNodes>
            0 -1 1328 -8.8049411773681641e-02</internalNodes>
          <leafValues>
            2.4890074133872986e-01 -2.4890074133872986e-01</leafValues></_>
        <_>
          <internalNodes>
            0 -1 586 4.6306019066832960e-04</internalNodes>
          <leafValues>
            2.3002253472805023e-01 -2.3002253472805023e-01</leafValues></_>
        <_>
          <internalNodes>
            0 -1 556 -4.2879732791334391e-04</internalNodes>
          <leafValues>
            2.2071236371994019e-01 -2.2071236371994019e-01</leafValues></_>
        <_>
          <internalNodes>
            0 -1 1404 1.2367477756924927e-04</internalNodes>
          <leafValues>
            -2.4396346509456635e-01 2.4396346509456635e-01</leafValues></_>
        <_>
          <internalNodes>
            0 -1 625 1.1297039687633514e-02</internalNodes>
          <leafValues>
            -2.2211518883705139e-01 2.2211518883705139e-01</leafValues></_>
        <_>
          <internalNodes>
            0 -1 526 3.5444419831037521e-02</internalNodes>
          <leafValues>
            2.1902592480182648e-01 -2.1902592480182648e-01</leafValues></_>
        <_>
          <internalNodes>
            0 -1 457 4.9413666129112244e-03</internalNodes>
          <leafValues>
            -2.5330412387847900e-01 2.5330412387847900e-01</leafValues></_>
        <_>
          <internalNodes>
            0 -1 806 -8.0713517963886261e-03</internalNodes>
          <leafValues>
            -2.4869196116924286e-01 2.4869196116924286e-01</leafValues></_></weakClassifiers></_>
    <!-- stage 8 -->
    <_>
      <maxWeakCount>83</maxWeakCount>
      <stageThreshold>-2.5480825901031494e+00</stageThreshold>
      <weakClassifiers>
        <_>
          <internalNodes>
            0 -1 141 3.0868875980377197e-01</internalNodes>
          <leafValues>
            -6.4487361907958984e-01 6.4487361907958984e-01</leafValues></_>
        <_>
          <internalNodes>
            0 -1 1656 1.2060127221047878e-02</internalNodes>
          <leafValues>
            -4.7148850560188293e-01 4.7148850560188293e-01</leafValues></_>
        <_>
          <internalNodes>
            0 -1 525 -1.1274375952780247e-02</internalNodes>
          <leafValues>
            4.2614039778709412e-01 -4.2614039778709412e-01</leafValues></_>
        <_>
          <internalNodes>
            0 -1 1284 4.3483899207785726e-04</internalNodes>
          <leafValues>
            4.6114394068717957e-01 -4.6114394068717957e-01</leafValues></_>
        <_>
          <internalNodes>
            0 -1 650 5.9388700872659683e-02</internalNodes>
          <leafValues>
            -4.1034209728240967e-01 4.1034209728240967e-01</leafValues></_>
        <_>
          <internalNodes>
            0 -1 1184 -2.6600863784551620e-03</internalNodes>
          <leafValues>
            -3.3870032429695129e-01 3.3870032429695129e-01</leafValues></_>
        <_>
          <internalNodes>
            0 -1 1118 6.1181122437119484e-03</internalNodes>
          <leafValues>
            -3.6640989780426025e-01 3.6640989780426025e-01</leafValues></_>
        <_>
          <internalNodes>
            0 -1 1143 4.0052078664302826e-02</internalNodes>
          <leafValues>
            2.5388908386230469e-01 -2.5388908386230469e-01</leafValues></_>
        <_>
          <internalNodes>
            0 -1 1344 5.0922012887895107e-03</internalNodes>
          <leafValues>
            -3.3229121565818787e-01 3.3229121565818787e-01</leafValues></_>
        <_>
          <internalNodes>
            0 -1 376 1.3814928010106087e-02</internalNodes>
          <leafValues>
            3.0098366737365723e-01 -3.0098366737365723e-01</leafValues></_>
        <_>
          <internalNodes>
            0 -1 432 9.3525379896163940e-02</internalNodes>
          <leafValues>
            -3.0231291055679321e-01 3.0231291055679321e-01</leafValues></_>
        <_>
          <internalNodes>
            0 -1 1596 -6.4332359470427036e-03</internalNodes>
          <leafValues>
            2.8188851475715637e-01 -2.8188851475715637e-01</leafValues></_>
        <_>
          <internalNodes>
            0 -1 1824 8.7445636745542288e-04</internalNodes>
          <leafValues>
            2.8026941418647766e-01 -2.8026941418647766e-01</leafValues></_>
        <_>
          <internalNodes>
            0 -1 1730 3.5950418096035719e-03</internalNodes>
          <leafValues>
            -3.0089151859283447e-01 3.0089151859283447e-01</leafValues></_>
        <_>
          <internalNodes>
            0 -1 998 2.6423067320138216e-03</internalNodes>
          <leafValues>
            2.7286210656166077e-01 -2.7286210656166077e-01</leafValues></_>
        <_>
          <internalNodes>
            0 -1 52 8.1637660041451454e-03</internalNodes>
          <leafValues>
            -3.3946600556373596e-01 3.3946600556373596e-01</leafValues></_>
        <_>
          <internalNodes>
            0 -1 1033 -4.6367123723030090e-02</internalNodes>
          <leafValues>
            -2.9175251722335815e-01 2.9175251722335815e-01</leafValues></_>
        <_>
          <internalNodes>
            0 -1 225 1.3726805336773396e-02</internalNodes>
          <leafValues>
            -3.1371474266052246e-01 3.1371474266052246e-01</leafValues></_>
        <_>
          <internalNodes>
            0 -1 617 -1.3464260846376419e-03</internalNodes>
          <leafValues>
            2.5960138440132141e-01 -2.5960138440132141e-01</leafValues></_>
        <_>
          <internalNodes>
            0 -1 1670 4.0082992200041190e-05</internalNodes>
          <leafValues>
            -2.5037917494773865e-01 2.5037917494773865e-01</leafValues></_>
        <_>
          <internalNodes>
            0 -1 490 1.0144164552912116e-03</internalNodes>
          <leafValues>
            2.6157060265541077e-01 -2.6157060265541077e-01</leafValues></_>
        <_>
          <internalNodes>
            0 -1 596 -3.3550769090652466e-02</internalNodes>
          <leafValues>
            3.2645118236541748e-01 -3.2645118236541748e-01</leafValues></_>
        <_>
          <internalNodes>
            0 -1 972 3.3060438930988312e-02</internalNodes>
          <leafValues>
            2.1845640242099762e-01 -2.1845640242099762e-01</leafValues></_>
        <_>
          <internalNodes>
            0 -1 478 -4.5965430326759815e-03</internalNodes>
          <leafValues>
            2.7538478374481201e-01 -2.7538478374481201e-01</leafValues></_>
        <_>
          <internalNodes>
            0 -1 1015 2.5033062323927879e-02</internalNodes>
          <leafValues>
            2.2656057775020599e-01 -2.2656057775020599e-01</leafValues></_>
        <_>
          <internalNodes>
            0 -1 1683 6.8427226506173611e-04</internalNodes>
          <leafValues>
            -3.1948325037956238e-01 3.1948325037956238e-01</leafValues></_>
        <_>
          <internalNodes>
            0 -1 953 1.4737080782651901e-02</internalNodes>
          <leafValues>
            2.2714705765247345e-01 -2.2714705765247345e-01</leafValues></_>
        <_>
          <internalNodes>
            0 -1 1590 3.8732239045202732e-03</internalNodes>
          <leafValues>
            -2.7594974637031555e-01 2.7594974637031555e-01</leafValues></_>
        <_>
          <internalNodes>
            0 -1 1832 -5.7112090289592743e-03</internalNodes>
          <leafValues>
            -2.2798213362693787e-01 2.2798213362693787e-01</leafValues></_>
        <_>
          <internalNodes>
            0 -1 157 2.3990361951291561e-03</internalNodes>
          <leafValues>
            -2.7174383401870728e-01 2.7174383401870728e-01</leafValues></_>
        <_>
          <internalNodes>
            0 -1 1082 -1.1420759838074446e-03</internalNodes>
          <leafValues>
            -2.7427813410758972e-01 2.7427813410758972e-01</leafValues></_>
        <_>
          <internalNodes>
            0 -1 675 -2.2843847051262856e-02</internalNodes>
          <leafValues>
            2.8213164210319519e-01 -2.8213164210319519e-01</leafValues></_>
        <_>
          <internalNodes>
            0 -1 927 -4.0763141587376595e-03</internalNodes>
          <leafValues>
            2.7009776234626770e-01 -2.7009776234626770e-01</leafValues></_>
        <_>
          <internalNodes>
            0 -1 1204 -2.7564265765249729e-03</internalNodes>
          <leafValues>
            -2.3934416472911835e-01 2.3934416472911835e-01</leafValues></_>
        <_>
          <internalNodes>
            0 -1 125 -3.6759926006197929e-03</internalNodes>
          <leafValues>
            2.6140603423118591e-01 -2.6140603423118591e-01</leafValues></_>
        <_>
          <internalNodes>
            0 -1 202 1.5636466559953988e-04</internalNodes>
          <leafValues>
            2.4010635912418365e-01 -2.4010635912418365e-01</leafValues></_>
        <_>
          <internalNodes>
            0 -1 178 8.9297871454618871e-05</internalNodes>
          <leafValues>
            2.3818413913249969e-01 -2.3818413913249969e-01</leafValues></_>
        <_>
          <internalNodes>
            0 -1 995 -4.0408274799119681e-05</internalNodes>
          <leafValues>
            2.2632442414760590e-01 -2.2632442414760590e-01</leafValues></_>
        <_>
          <internalNodes>
            0 -1 1258 -8.7889540009200573e-04</internalNodes>
          <leafValues>
            2.3481927812099457e-01 -2.3481927812099457e-01</leafValues></_>
        <_>
          <internalNodes>
            0 -1 238 -3.3503529266454279e-04</internalNodes>
          <leafValues>
            -2.2173301875591278e-01 2.2173301875591278e-01</leafValues></_>
        <_>
          <internalNodes>
            0 -1 247 9.4521468877792358e-01</internalNodes>
          <leafValues>
            -3.0115458369255066e-01 3.0115458369255066e-01</leafValues></_>
        <_>
          <internalNodes>
            0 -1 254 9.1776445508003235e-02</internalNodes>
          <leafValues>
            2.2992379963397980e-01 -2.2992379963397980e-01</leafValues></_>
        <_>
          <internalNodes>
            0 -1 1059 -4.3097408488392830e-03</internalNodes>
          <leafValues>
            2.7313444018363953e-01 -2.7313444018363953e-01</leafValues></_>
        <_>
          <internalNodes>
            0 -1 1568 -3.9765058318153024e-04</internalNodes>
          <leafValues>
            2.5063034892082214e-01 -2.5063034892082214e-01</leafValues></_>
        <_>
          <internalNodes>
            0 -1 150 3.5843901336193085e-02</internalNodes>
          <leafValues>
            2.1641860902309418e-01 -2.1641860902309418e-01</leafValues></_>
        <_>
          <internalNodes>
            0 -1 1490 -6.4895622199401259e-04</internalNodes>
          <leafValues>
            2.6174739003181458e-01 -2.6174739003181458e-01</leafValues></_>
        <_>
          <internalNodes>
            0 -1 258 2.5413196999579668e-04</internalNodes>
          <leafValues>
            1.9716480374336243e-01 -1.9716480374336243e-01</leafValues></_>
        <_>
          <internalNodes>
            0 -1 1786 -1.3007626868784428e-02</internalNodes>
          <leafValues>
            2.4465493857860565e-01 -2.4465493857860565e-01</leafValues></_>
        <_>
          <internalNodes>
            0 -1 695 -2.5377001147717237e-03</internalNodes>
          <leafValues>
            -2.4173642694950104e-01 2.4173642694950104e-01</leafValues></_>
        <_>
          <internalNodes>
            0 -1 470 9.6188783645629883e-03</internalNodes>
          <leafValues>
            -2.7146247029304504e-01 2.7146247029304504e-01</leafValues></_>
        <_>
          <internalNodes>
            0 -1 970 5.4258841555565596e-04</internalNodes>
          <leafValues>
            2.1936161816120148e-01 -2.1936161816120148e-01</leafValues></_>
        <_>
          <internalNodes>
            0 -1 607 -2.0204833708703518e-03</internalNodes>
          <leafValues>
            2.5641393661499023e-01 -2.5641393661499023e-01</leafValues></_>
        <_>
          <internalNodes>
            0 -1 1 2.4726695846766233e-04</internalNodes>
          <leafValues>
            2.1901538968086243e-01 -2.1901538968086243e-01</leafValues></_>
        <_>
          <internalNodes>
            0 -1 1018 -2.6684687472879887e-03</internalNodes>
          <leafValues>
            2.2456018626689911e-01 -2.2456018626689911e-01</leafValues></_>
        <_>
          <internalNodes>
            0 -1 514 8.1930216401815414e-03</internalNodes>
          <leafValues>
            -2.5348624587059021e-01 2.5348624587059021e-01</leafValues></_>
        <_>
          <internalNodes>
            0 -1 898 6.1442993581295013e-02</internalNodes>
          <leafValues>
            -2.7336734533309937e-01 2.7336734533309937e-01</leafValues></_>
        <_>
          <internalNodes>
            0 -1 1039 -1.2866586912423372e-03</internalNodes>
          <leafValues>
            2.1348823606967926e-01 -2.1348823606967926e-01</leafValues></_>
        <_>
          <internalNodes>
            0 -1 310 -9.0413233265280724e-03</internalNodes>
          <leafValues>
            -2.1123357117176056e-01 2.1123357117176056e-01</leafValues></_>
        <_>
          <internalNodes>
            0 -1 728 -2.8803764143958688e-04</internalNodes>
          <leafValues>
            2.3242720961570740e-01 -2.3242720961570740e-01</leafValues></_>
        <_>
          <internalNodes>
            0 -1 987 -7.6524825999513268e-05</internalNodes>
          <leafValues>
            2.3750957846641541e-01 -2.3750957846641541e-01</leafValues></_>
        <_>
          <internalNodes>
            0 -1 996 -4.3450499651953578e-04</internalNodes>
          <leafValues>
            -2.0303727686405182e-01 2.0303727686405182e-01</leafValues></_>
        <_>
          <internalNodes>
            0 -1 383 1.1235105991363525e-01</internalNodes>
          <leafValues>
            -2.7119845151901245e-01 2.7119845151901245e-01</leafValues></_>
        <_>
          <internalNodes>
            0 -1 1285 -8.1221101572737098e-04</internalNodes>
          <leafValues>
            -2.4143297970294952e-01 2.4143297970294952e-01</leafValues></_>
        <_>
          <internalNodes>
            0 -1 293 -9.7746879328042269e-04</internalNodes>
          <leafValues>
            2.3806132376194000e-01 -2.3806132376194000e-01</leafValues></_>
        <_>
          <internalNodes>
            0 -1 1046 1.1867763241752982e-03</internalNodes>
          <leafValues>
            -2.3604650795459747e-01 2.3604650795459747e-01</leafValues></_>
        <_>
          <internalNodes>
            0 -1 296 -4.2425032006576657e-04</internalNodes>
          <leafValues>
            2.2208140790462494e-01 -2.2208140790462494e-01</leafValues></_>
        <_>
          <internalNodes>
            0 -1 651 4.1710224002599716e-02</internalNodes>
          <leafValues>
            2.3362968862056732e-01 -2.3362968862056732e-01</leafValues></_>
        <_>
          <internalNodes>
